菊糖 -0.2718 -0.3312 -0.0465 -0.1716 -0.2744 -0.1557 -0.0576 0.29737 0.02497 0.28716 0.31325 -0.1787 -0.2511 0.30489 -0.1535 0.65291 -0.0323 -0.2383 -0.4482 0.13935 -0.0934 0.13846 -0.3059 -0.0791 -0.2979 0.10681 -0.3506 0.32263 0.20124 0.13742 -0.5399 -0.7818 -0.2227 0.18796 -0.0318 0.11507 -0.3461 -0.0355 -0.2637 0.46744 -0.3512 0.17585 -0.1761 0.15055 0.00973 0.13054 -0.0060 -0.2589 -0.1582 -0.0731 -0.4747 -0.2094 -0.1417 0.07950 -0.5751 -0.0369 -0.3640 0.28783 0.00392 -0.1246 -0.1046 0.08639 -0.0296 0.16437 0.15965 -0.1779 -0.1529 0.22071 -0.2800 -0.0031 0.32228 0.01882 -0.0405 0.11687 0.06253 -0.0862 0.16636 0.41916 -0.2959 -0.3284 -0.0237 -0.2782 -0.3080 -0.0369 -0.1616 -0.0938 0.22700 -0.1872 0.32070 0.11790 0.23482 -0.1474 -0.2108 0.52973 -0.0306 0.09711 -0.1070 0.82492 0.08551 0.16014 0.47177 0.03384 -0.0782 0.06385 0.06085 0.08697 -0.0675 0.32252 0.31661 0.18135 0.19357 0.09042 -0.0390 0.21760 -0.3223 0.22292 -0.2818 -0.0685 0.26959 0.14250 -0.1609 -0.2673 0.19775 0.07825 -0.0700 0.06695 0.02182 -0.2879 0.26980 -0.3166 -0.3096 0.42868 0.49819 -0.0640 0.38664 0.10092 -0.1560 0.14628 -0.1687 -0.5445 -0.0290 -0.2792 0.25110 0.05105 0.02063 -0.2407 -0.2136 0.08317 -0.3697 -0.3849 -0.2312 -0.1260 -0.5621 -0.1238 -0.0852 -0.2067 0.01458 0.03646 0.21112 0.10729 0.05923 -0.0988 -0.3036 0.19666 0.09275 -0.2199 0.03736 0.26948 0.09699 -0.0865 -0.0821 -0.1005 0.06648 0.05500 0.03928 0.12696 0.16096 -0.2319 0.14798 -0.0219 0.54963 -0.1990 0.68479 -0.3407 0.14438 0.44133 -0.0387 -0.6328 -0.1315 -0.5218 0.08248 -0.2929 0.21688 0.01350 0.07854 -0.2833 0.27638 0.19449 0.27181 0.09596 -0.0603 0.22934 -0.1593 0.55880 -0.2263 0.05957 -0.2694 0.02849 0.40982 -0.0407 -0.0882 -0.1245 0.03094 0.09092 -0.1828 -0.3718 -0.0694 -0.3425 -0.1846 -0.1659 -0.1211 0.15176 -0.3009 0.56068 0.21784 -0.4902 -0.1318 -0.1495 0.32438 -0.2734 0.05060 -0.1860 -0.2680 0.08177 -0.0875 0.08684 -0.1828 0.13239 -0.2371 -0.1263 -0.0737 0.04994 -0.2573 0.03031 -0.0538 0.28865 0.45977 -0.2118 -0.0967 -0.2454 -0.0041 0.10472 -0.4218 0.12408 0.16467 0.26006 0.10780 0.01522 -0.4592 0.14438 0.09015 -0.2526 0.35581 0.23222 0.36749 -0.0043 0.27630 0.43724 0.55258 -0.3243 -0.7050 0.18727 0.65366 -0.2141 0.13545 -0.5051 0.38443 0.02354 0.39796 0.20215 -0.5896 -0.5192 -0.1945 0.45332 0.23161 -0.4939 -1.0291 0.13005 -0.3962 -0.1100 -0.3174 1.21758 0.73096 0.24728 -0.8032 0.92442 0.46610 0.07185 -0.1931 0.05539
密度板 0.01544 -0.2889 -0.1400 -0.1673 0.10663 -0.1940 -0.0649 0.13027 0.03997 0.18208 -0.0591 0.27296 0.02139 0.03332 0.09713 -0.0559 0.20331 0.15882 -0.1005 -0.0116 -0.2559 0.26195 -0.0611 -0.0363 -0.4426 0.09680 -0.5650 0.09419 0.07015 0.43562 -0.6153 -0.1686 -0.0377 0.14623 0.06596 -0.0296 0.13854 0.04869 -0.0355 -0.2131 -0.0989 -0.1405 -0.1347 -0.0610 0.10778 -0.0160 0.03037 -0.1216 -0.0935 0.33069 0.10499 -0.1459 -0.0203 0.01647 0.07962 -0.0354 -0.1202 0.23125 0.11567 0.03226 -0.2332 -0.1375 0.27582 -0.0034 -0.0312 -0.0673 -0.0004 -0.0909 -0.1797 -0.2684 -0.2032 -0.0557 -0.2051 0.05971 -0.1312 -0.4687 0.05768 0.09536 -0.1900 -0.0637 -0.0289 0.18533 -0.2701 -0.0060 0.09326 0.18701 0.24137 -0.0663 0.46642 0.26492 -0.1435 0.00675 -0.1173 0.16488 -0.3032 0.05819 0.27738 -0.0624 -0.0431 0.03803 0.07322 -0.1694 0.08047 0.09644 0.15663 0.10817 0.09203 -0.0838 0.07674 0.37208 0.10261 0.13248 -0.2995 -0.1134 -0.3198 0.16422 -0.2188 0.20283 0.05905 -0.0511 -0.0033 -0.0383 0.04129 0.15324 0.01385 -0.0072 -0.1781 -0.2401 0.16527 0.01484 -0.0369 0.16289 0.28025 0.06594 -0.0096 -0.1106 0.15380 0.04145 0.02239 -0.4451 -0.1587 -0.0397 0.29644 0.17015 -0.0029 -0.0066 0.09360 0.01313 -0.3103 0.00409 0.25733 0.23257 0.14092 -0.1252 -0.2255 -0.1020 0.34586 0.42902 0.03866 -0.0805 -0.2611 0.12517 -0.0287 0.12284 -0.0145 -0.2199 -0.0523 -0.3544 -0.0278 -0.0843 -0.1738 0.29197 -0.2858 0.23394 -0.4252 0.27153 0.05500 -0.1910 -0.1241 -0.1287 -0.1409 0.04631 0.07864 -0.3910 -0.3269 0.03894 -0.1455 -0.4640 0.04611 -0.1180 -0.1225 -0.2557 -0.0545 -0.0376 0.05497 -0.3557 0.22349 0.26851 0.29746 -0.0718 0.12813 0.03219 -0.7120 0.38986 -0.1845 -0.1318 0.02352 0.27218 0.43038 0.09334 -0.0851 0.02186 0.02712 0.05368 -0.3225 0.14348 -0.0364 -0.4234 -0.1160 -0.0216 -0.1477 0.14828 0.17652 0.54241 0.33457 0.05874 -0.3607 -0.3110 0.05341 -0.1974 0.01491 0.02998 -0.3491 0.12853 -0.2337 0.06853 -0.2632 0.11696 -0.3773 0.03302 -0.1237 -0.3202 -0.2851 0.33087 0.11468 0.28928 0.05403 0.03768 0.07882 0.11907 -0.3856 0.16799 -0.2150 -0.0585 0.05374 -0.0727 -0.1913 -0.0411 -0.2313 0.02264 0.15355 -0.2002 0.33817 0.19332 0.52262 -0.1665 0.43082 0.37281 0.22013 -0.5719 -1.0049 0.23192 0.44012 -0.1246 0.09057 -0.1833 0.68560 -0.2017 0.22622 -0.0124 -0.4655 0.11925 -0.1742 0.17257 0.21707 -0.0840 -0.8556 -0.0871 0.11984 -0.3693 -0.2844 0.13492 0.51496 0.11023 -0.0562 0.48050 0.66064 -0.2701 0.12609 0.38445
煤气管道 -0.2575 -0.3044 0.06704 0.04332 0.18457 -0.1285 0.08687 -0.0684 0.20332 0.13410 0.04183 -0.0146 -0.0260 -0.1457 -0.0089 0.26505 0.07510 0.28877 0.06423 -0.0565 0.14957 0.32169 -0.1168 0.12210 -0.3994 0.14123 -0.3826 0.23220 -0.1341 0.14441 -0.1342 -0.1809 0.18295 -0.1215 -0.2397 0.05347 0.00186 0.30763 -0.0501 -0.2044 0.04386 -0.2166 0.22578 -0.0537 0.16192 -0.0514 -0.1690 -0.1734 -0.2067 0.03466 -0.0513 -0.2077 -0.0197 0.03552 0.00736 -0.0020 -0.2349 -0.0888 0.42563 -0.1415 -0.0373 0.22578 -0.1098 0.03333 0.12679 0.22129 -0.1572 0.21233 -0.2108 -0.2318 -0.0585 -0.1219 -0.0167 0.15910 -0.0196 -0.3274 0.02217 0.10287 -0.2341 0.02325 0.19891 -0.1321 -0.0302 -0.1267 0.02212 -0.0843 0.24780 -0.1793 0.33389 0.09454 -0.0455 0.10335 0.09256 0.36385 0.23954 0.08579 0.26464 -0.0518 -0.0462 0.10250 0.38112 0.08878 -0.0800 0.15268 -0.0483 0.09582 0.22797 -0.3199 0.15477 0.09386 -0.1431 -0.0363 -0.0399 -0.0116 -0.0011 0.11829 0.08508 -0.1465 -0.0052 0.04540 -0.0385 -0.0053 0.07480 -0.0111 -0.2519 0.03229 -0.0847 -0.2245 -0.0707 -0.0232 0.06487 0.17967 0.10387 0.14891 0.18903 0.05774 -0.1047 0.04367 -0.0132 -0.0870 0.02190 -0.1453 0.08108 0.19547 0.01880 0.01771 -0.1267 -0.1264 -0.5753 0.12061 0.05899 -0.2723 0.07998 -0.0209 -0.1021 -0.1229 0.23639 0.15716 0.11248 -0.1930 -0.0640 0.32293 -0.2260 0.02895 -0.0480 -0.2361 -0.2098 -0.3434 -0.3126 0.22448 -0.0724 0.04266 -0.1434 -0.1306 -0.0958 0.28748 0.03484 -0.0066 0.12580 -0.2446 -0.0176 0.00746 0.18575 -0.1317 -0.2349 -0.0017 -0.1048 -0.1495 -0.2032 -0.0395 -0.2178 -0.1017 0.03898 -0.2692 0.09631 0.04620 0.40844 0.07927 0.04655 0.07297 0.07782 -0.0433 -0.3485 0.21022 0.01523 -0.3226 0.07493 0.13814 0.21865 -0.0516 0.07030 -0.2026 0.04407 -0.2365 -0.1896 0.02272 -0.4294 -0.2139 -0.3713 -0.0149 -0.1368 0.17990 0.11247 0.19752 0.18711 0.03682 -0.0836 -0.3918 0.23661 -0.0971 0.07272 -0.1495 -0.0805 -0.1425 -0.3281 0.26939 -0.1075 -0.0012 -0.1342 -0.0718 0.03267 -0.0987 -0.2042 0.17178 -0.0110 0.30681 0.02315 -0.0222 0.08323 0.27201 -0.2999 0.01461 -0.0056 -0.0044 0.09417 0.02598 0.08019 -0.1002 -0.4201 -0.0514 -0.1387 -0.0826 0.43152 0.00426 0.38625 -0.1662 0.34174 0.10830 0.26649 -0.3390 -0.5594 0.17385 0.05737 -0.1969 0.00952 0.03835 0.45529 0.15714 0.40189 0.27796 -0.3857 0.12236 -0.1710 0.13649 0.16082 -0.3186 -0.8750 -0.0047 -0.2603 -0.0872 -0.0744 0.33641 0.55329 0.13019 -0.3920 0.83764 0.43732 0.04629 0.09559 0.11025
釉柱 -0.0835 -0.3480 0.15081 0.16074 0.05059 -0.0283 -0.1342 0.23347 -0.0074 0.08157 -0.1352 0.25856 0.01337 -0.0152 -0.0082 -0.0173 0.32279 -0.1099 -0.2604 0.09945 -0.2082 -0.2042 0.15275 0.26138 -0.6917 -0.0819 -0.5640 0.19258 0.25125 0.42804 -0.4906 -0.1143 0.13866 -0.0394 -0.1363 -0.1169 -0.0101 -0.1304 0.05551 -0.2674 -0.0957 0.39811 -0.2254 -0.3819 0.09811 -0.4462 0.06073 -0.2127 0.31374 0.00878 0.09952 -0.0552 0.23808 0.14946 0.00672 0.15960 -0.1096 0.18974 -0.3021 -0.2204 -0.3374 -0.1633 0.23148 0.17223 0.09491 -0.1676 -0.0461 0.12679 -0.0483 -0.2262 -0.1543 0.34268 -0.3168 0.13159 0.40353 -0.2166 -0.0826 0.29368 -0.4408 0.14871 -0.1634 0.19162 -0.3348 0.19962 -0.0937 0.14931 0.15766 0.06999 0.40129 0.32347 -0.0527 0.09178 -0.0657 0.21058 -0.1067 0.23363 0.32180 0.29579 0.05448 0.27529 0.37552 -0.0843 0.12993 -0.2132 -0.2323 0.24297 0.18853 -0.0556 -0.1790 0.04028 -0.1322 0.36580 0.24041 -0.0777 -0.1667 0.29679 -0.1300 -0.0356 0.26273 -0.3263 -0.0674 0.20472 -0.1321 -0.4432 0.13661 0.09143 -0.0287 0.03107 -0.0151 -0.1142 -0.0894 0.28763 0.22388 0.04718 0.21311 -0.1251 -0.2708 -0.1293 -0.2141 -0.2085 0.18873 0.14773 0.10217 0.40947 -0.1831 -0.1901 0.04183 -0.3254 -0.1522 -0.2669 0.21863 0.41226 -0.1832 0.30224 -0.1788 -0.2832 0.52186 0.32019 0.26753 -0.0571 -0.0262 -0.1759 -0.2210 0.22714 0.03595 -0.2336 0.12825 -0.4736 -0.3378 -0.3279 0.04223 0.21924 -0.3933 -0.2096 -0.4739 0.19983 -0.0977 -0.0564 0.06748 -0.3134 -0.2711 -0.2732 0.09218 -0.4138 -0.4532 0.03648 -0.4535 -0.5974 -0.2947 -0.1155 0.11007 -0.3670 0.02173 -0.0059 -0.2740 -0.5045 0.17930 0.00595 0.17942 -0.1356 0.31146 -0.6136 -0.7904 0.31556 0.00419 0.15364 -0.1700 0.31074 0.58274 0.00860 -0.0341 -0.2700 0.00098 0.31577 -0.6789 -0.2200 -0.1858 -0.0093 -0.2112 -0.1663 0.26681 0.28802 -0.0011 0.53911 0.67322 -0.1039 -0.2350 -0.0770 0.41170 -0.1805 0.36676 0.26702 -0.1969 0.20403 -0.5151 -0.0582 -0.3154 0.13354 -0.6488 0.09408 -0.0282 -0.0115 -0.4411 0.54763 0.16645 0.14807 0.25579 -0.0579 -0.5296 -0.3772 0.00929 -0.3150 -0.0266 -0.4632 0.48486 0.29006 0.15366 0.24788 -0.6154 0.39811 0.35615 0.14916 0.05388 0.18559 0.41945 0.10354 0.41483 0.44538 0.87021 -0.1827 -0.6004 0.25022 0.55818 0.27937 0.18966 -0.1429 0.54024 -0.3649 0.29557 0.26360 -0.4964 0.07038 -0.3669 0.27953 0.85721 0.02740 -1.2271 0.05901 0.39943 -0.4689 -0.4030 0.63666 0.77255 0.49302 -0.5059 0.44204 0.61319 -0.4352 0.25634 0.03267
浚渠 0.14721 0.03944 -0.1727 0.26622 0.02200 -0.1792 -0.0622 -0.1187 -0.0006 0.13021 0.25687 -0.0446 0.11402 -0.2581 0.00064 0.03892 0.17547 -0.0444 0.24074 0.17531 -0.0155 -0.1897 0.30135 0.03937 -0.4672 0.23484 -0.2712 0.15986 -0.1224 -0.0586 -0.1045 -0.2222 -0.1478 0.06132 0.15655 -0.3426 0.24065 0.06831 -0.0405 -0.4308 -0.2813 -0.2676 0.08202 0.06725 0.14356 0.07039 0.07850 0.10252 0.55912 0.07911 -0.3446 -0.0225 -0.0543 0.57716 -0.0999 -0.2338 -0.0221 0.23912 -0.3065 0.13508 0.08808 0.21643 -0.1439 -0.1326 0.15786 0.47728 -0.2301 0.02114 -0.5565 -0.4302 -0.3228 -0.3757 -0.0514 0.59527 -0.1082 0.01374 0.16543 0.20027 -0.4520 0.06992 -0.0021 0.25141 0.20407 0.21102 0.39669 -0.0285 0.09299 -0.2250 0.28897 0.20365 0.11863 -0.0951 -0.0627 0.28749 0.42656 -0.1509 0.01922 0.25056 -0.0923 0.26812 0.28326 -0.0646 -0.1770 -0.1022 -0.1030 -0.0021 0.04782 -0.0053 0.25864 0.18938 0.24714 0.17632 -0.0166 -0.0148 -0.0175 -0.1469 -0.1580 -0.1424 -0.2730 0.08101 0.08570 0.24220 -0.0503 0.05204 0.19673 -0.1057 -0.1237 0.04087 0.20782 0.11983 0.03509 0.33579 0.52167 -0.4973 0.09732 0.18344 -0.1397 -0.0054 0.10143 -0.1538 0.15679 -0.1757 -0.2114 0.44510 -0.1321 -0.0215 -0.0287 0.13650 -0.0142 -0.0436 0.26661 0.07254 0.46331 0.13221 -0.2318 0.05330 0.30598 -0.0544 0.07709 0.15843 -0.5012 0.21783 0.14541 0.15267 0.01505 -0.1859 0.01339 0.09493 -0.3317 0.29625 -0.2500 -0.0189 -0.9250 0.12596 -0.0101 0.44239 -0.0841 -0.2148 -0.1145 -0.4904 -0.7985 -0.3016 0.24895 -0.4650 -0.6894 0.44801 -0.3865 -0.7870 -0.7025 -0.1586 -0.0660 0.04242 -0.3294 0.21420 -0.0978 -0.5406 0.22902 -0.0551 -0.1842 0.04393 0.03901 -0.0854 -0.7329 0.52716 -0.2017 -0.3540 -0.0299 0.31949 0.68369 0.26445 0.03722 0.11216 0.40838 0.13336 -0.0605 -0.0327 -0.5017 -0.5909 -0.3286 0.32990 0.04743 0.39760 -0.0872 0.79337 0.21523 -0.2340 -0.2866 -0.2746 0.28754 -0.3111 0.04086 -0.0491 -0.2311 -0.1178 -0.4341 -0.0066 0.23993 -0.0528 -0.4878 0.14239 -0.3721 -0.1155 -0.3794 0.56226 -0.1833 0.12380 0.46476 0.00824 -0.1026 -0.4066 0.10722 -0.4800 0.04791 -0.0338 0.60529 -0.5602 0.19158 0.27060 -0.0075 0.13460 0.14537 -0.1603 0.30325 0.29013 0.30349 -0.1804 0.72873 0.02456 0.70719 -0.2296 -0.1206 -0.0521 0.41924 -0.2980 -0.0661 0.14925 0.47873 0.16430 -0.0369 0.38987 -1.1303 -0.0751 -0.3376 0.41885 1.49063 -0.0160 -1.2912 0.39463 0.11229 0.13018 -0.0831 0.28864 0.83927 0.20624 -0.5782 1.04009 0.42115 -0.0947 -0.4007 0.33790
潮汐能源 0.06152 -0.1040 -0.0100 -0.1197 0.12765 -0.2251 -0.1087 -0.0805 0.10937 0.30658 0.12976 0.09309 0.23485 -0.1302 0.20206 0.13471 0.02669 0.03050 -0.0232 0.19669 0.01354 0.12779 0.11424 0.07347 -0.5035 -0.0209 -0.4761 0.34223 0.11010 0.15363 -0.5300 -0.3382 0.08659 0.18722 0.23605 -0.2062 0.23043 0.05863 0.07583 -0.0525 -0.1530 -0.3104 0.05237 0.37706 0.12509 0.09469 -0.1577 0.06245 -0.0868 0.18730 0.04853 -0.1222 -0.0075 0.15113 -0.1585 0.07645 -0.1491 0.15197 0.18125 0.01806 0.14308 0.21916 0.09288 -0.1105 -0.0149 0.06160 0.00588 -0.1688 -0.2233 -0.1744 0.01062 -0.2380 -0.0474 0.01788 0.00216 -0.1872 -0.0501 -0.0280 -0.3258 -0.1527 -0.1186 -0.0030 -0.2413 0.01256 0.04972 -0.0271 0.21529 -0.0707 0.24105 0.11042 0.09682 0.07542 -0.0224 0.16881 0.00271 -0.0663 0.25063 -0.0376 -0.0230 -0.1445 0.10789 0.24255 0.12544 0.01695 0.18991 0.25916 0.14625 -0.1107 0.32463 0.24318 0.00187 0.06404 -0.1512 -0.2432 -0.1585 0.25063 -0.0699 -0.0971 0.10531 -0.2981 -0.1260 0.17257 -0.0662 0.02459 0.12374 -0.0880 -0.0941 -0.0970 0.06857 0.03954 -0.0596 0.18432 0.21848 -0.3183 0.22168 -0.1600 0.02057 0.12670 0.09585 -0.5220 0.15498 -0.0570 0.11045 0.22213 0.09021 -0.1768 0.02031 -0.1706 -0.0560 0.10186 0.06920 -0.0638 0.29128 -0.0285 -0.1352 -0.2689 0.04024 0.23311 0.16587 -0.0257 -0.1652 0.31123 -0.1024 -0.1417 0.06551 0.11372 0.26706 -0.3522 -0.3769 0.04078 -0.0290 0.35663 -0.4023 0.33324 -0.3182 0.30357 -0.1540 -0.1475 0.00964 -0.0120 -0.1049 0.14600 0.39909 -0.1957 -0.1405 0.25653 -0.2364 -0.5134 -0.1158 -0.1913 -0.3073 -0.0895 -0.2397 0.11591 0.13040 -0.4392 0.22460 0.21340 0.01436 -0.1214 0.04923 -0.0373 -0.6532 0.20125 -0.2099 -0.2790 0.09472 0.19948 0.45777 0.12805 -0.1092 0.04330 0.04765 0.08893 -0.1891 0.03614 -0.1103 -0.3627 -0.3229 0.15218 0.01491 0.41639 -0.0670 0.35314 -0.0876 -0.1283 -0.2948 -0.4165 0.12548 -0.3365 0.06377 0.09841 0.05632 -0.0817 -0.3702 -0.0225 -0.1045 -0.1139 -0.3975 0.11513 -0.1721 -0.2363 -0.2032 0.59625 0.05596 0.36793 0.14066 0.27192 -0.1386 -0.0352 -0.1366 -0.0090 -0.0427 -0.1872 0.16820 -0.1591 0.05974 -0.1163 -0.2887 -0.0193 0.04898 -0.0066 0.42920 0.26750 0.37970 -0.2727 0.47204 0.49788 0.39836 -0.3699 -0.4454 0.20684 0.31639 -0.3771 0.16063 0.26198 0.76178 0.12136 0.10713 0.13215 -0.6063 -0.1223 0.03548 0.64529 0.52341 -0.2644 -0.8648 0.23711 -0.1595 -0.1155 -0.1349 0.53227 0.54868 -0.0237 -0.3649 0.67321 0.48663 -0.2579 -0.1112 0.50460
自由表面 -0.0952 -0.3302 -0.1073 -0.2306 -0.0199 0.00732 -0.0504 0.02742 0.16137 0.12437 0.03347 0.16797 0.12872 0.16507 0.09313 -0.0344 0.02652 -0.0985 0.01861 -0.0356 -0.0452 0.05666 -0.1045 -0.0522 -0.4743 0.06101 -0.4887 0.07652 0.06034 0.29226 -0.4969 -0.0714 0.14155 0.24049 -0.0761 -0.0823 -0.0368 0.00949 0.11424 -0.0416 -0.2693 -0.1402 -0.2237 0.11051 0.10880 -0.1353 -0.1255 0.07225 -0.1777 0.17237 -0.0202 -0.0587 0.03243 0.03678 -0.1040 -0.0857 -0.1676 0.15235 0.62279 -0.0920 -0.0604 0.05539 0.41473 0.07670 -0.0386 -0.0570 0.09093 -0.0560 -0.1284 -0.2770 -0.1149 -0.0789 -0.2195 0.17000 -0.0067 -0.1797 0.00920 0.18182 0.06833 -0.0570 -0.0538 0.08818 -0.2930 0.06081 0.00783 0.07077 0.06504 0.02172 0.12030 0.10446 0.03638 0.17923 -0.0484 -0.0816 0.02497 0.07079 0.25226 0.25812 -0.0494 -0.0698 0.18787 0.08795 0.06737 -0.1746 0.02729 0.30928 0.15726 -0.0095 0.00871 0.32763 0.12206 0.15848 -0.1633 -0.1716 -0.0501 0.05362 -0.1659 0.03969 -0.1183 0.03334 -0.0754 0.15766 -0.0216 -0.2237 -0.0975 0.03594 -0.2108 -0.0487 0.13317 -0.0592 -0.1133 0.10143 0.12987 -0.0022 0.13764 -0.1603 0.00367 -0.0355 0.18415 0.12483 -0.0658 0.21075 -0.0124 0.03112 -0.0542 -0.0532 0.06287 -0.0404 -0.1454 -0.0756 0.13143 -0.0840 0.13957 -0.0584 0.14823 -0.0036 0.01929 0.08908 0.18265 0.19544 -0.0577 0.13087 -0.0279 -0.0051 -0.0631 0.02051 0.07385 -0.2738 -0.0864 0.25594 -0.0918 0.28943 -0.2414 0.09047 -0.1076 0.21847 -0.1884 -0.1786 -0.0798 -0.1533 -0.0100 -0.0360 0.18513 -0.2173 -0.2768 0.16415 -0.1009 -0.2491 -0.1759 -0.0367 -0.1469 -0.0959 0.14427 0.00596 -0.1490 -0.3632 0.12670 0.17307 0.18778 -0.0628 0.02961 0.04199 -0.5347 0.28410 -0.2640 -0.1859 -0.0039 0.27258 0.32827 0.16789 -0.0814 0.04056 -0.0162 0.11148 -0.1568 0.02503 -0.1778 -0.4162 -0.2075 0.01552 -0.0301 0.22857 0.02345 0.30038 0.19804 0.06150 -0.2056 -0.2259 0.00622 -0.4019 -0.2461 -0.0095 -0.2504 0.00834 -0.2184 0.03796 -0.2496 0.25414 -0.2174 -0.0414 -0.3494 -0.2386 -0.2740 0.56299 -0.0441 0.36933 -0.0633 0.07598 -0.0220 -0.1183 -0.2571 -0.0194 0.00430 -0.0750 0.08027 -0.0137 0.09979 0.00159 -0.2984 0.03491 0.00066 0.06898 0.21811 0.35977 0.46715 -0.2269 0.19919 0.44489 0.17283 -0.3840 -0.5445 0.10721 0.35233 -0.0237 -0.0016 -0.0935 0.65507 -0.1392 0.12358 -0.1797 -0.4562 0.09153 -0.1553 0.07393 0.35748 -0.1459 -0.8466 -0.1003 -0.0603 -0.3338 -0.3422 0.30095 0.37095 0.04058 -0.3679 0.29439 0.49306 -0.0014 0.16548 0.28450
葡萄蔓枯病 -0.1476 -0.0963 0.04888 0.02846 0.32219 -0.1679 0.01679 0.20540 0.30536 0.11259 -0.1123 0.01848 -0.3666 0.01803 -0.2165 -0.0060 0.01472 -0.2101 0.00388 -0.1051 0.08170 0.02469 -0.0261 -0.0230 -0.1393 0.05377 -0.0528 -0.0134 0.07977 0.20491 -0.3991 -0.1742 0.19951 0.16093 0.06324 -0.0446 0.06647 0.01161 0.06520 -0.0105 -0.0883 0.01402 0.06061 0.13101 0.03124 0.02326 -0.0730 0.00204 -0.1620 -0.3167 0.11205 0.14899 -0.1078 0.05156 -0.1002 -0.0451 0.13527 0.07615 -0.1474 0.04814 0.02561 0.02656 0.06923 -0.0822 0.17889 0.00652 0.04990 0.11580 -0.0064 -0.1759 0.23279 -0.0893 -0.2114 0.03919 0.13080 -0.0302 0.11618 0.13106 0.09818 -0.0964 0.00424 0.07031 -0.4790 -0.2412 -0.1425 0.09823 0.02384 -0.0383 0.00508 0.00230 0.07546 0.20307 -0.2166 -0.0239 0.05683 -0.0307 0.28640 0.43824 -0.0650 -0.0132 0.38529 0.32765 0.00724 -0.3135 0.04496 0.11201 0.07356 -0.0286 -0.0735 0.18757 0.04593 -0.1269 -0.1734 0.22396 0.01148 0.13158 0.04116 -0.1068 0.13731 0.18384 -0.0960 0.06846 0.09059 0.10644 -0.0985 0.04365 -0.0070 -0.1902 0.04142 -0.0091 -0.1719 0.41187 0.19966 -0.1799 0.18787 -0.0733 0.05771 0.15450 -0.1260 -0.1202 0.06691 -0.0616 0.09206 0.01294 0.02130 0.00378 -0.1390 0.09931 -0.1865 -0.1622 0.23502 0.09608 -0.0771 -0.0763 0.11322 -0.0516 0.09983 0.12959 0.13609 -0.0377 0.10940 0.19723 -0.1098 -0.0158 0.07545 -0.0356 -0.2428 -0.3708 -0.0652 0.06785 -0.1702 0.19472 -0.1454 0.12414 -0.0182 0.08849 -0.0029 -0.0323 -0.0566 -0.1201 0.15057 0.10620 0.27337 -0.0772 -0.1148 0.11942 -0.2989 -0.1506 -0.0688 -0.0395 0.00512 -0.1618 0.45827 0.00411 -0.1010 0.03474 0.04342 -0.1116 0.00446 -0.0340 0.18672 -0.2509 -0.3719 0.17447 -0.2427 -0.0890 0.00919 0.16187 0.12370 0.09907 -0.0666 0.02344 0.00424 -0.0580 -0.2723 -0.0916 -0.2374 -0.1907 -0.1589 -0.0930 -0.1314 0.28425 -0.0829 0.23130 -0.0625 -0.2135 -0.2096 -0.0334 0.28401 -0.2840 0.05954 -0.0447 -0.0567 0.14329 -0.0213 0.17685 -0.0869 0.03969 -0.1286 -0.0542 0.01823 0.04134 -0.0232 -0.1765 -0.1123 0.18921 0.09922 -0.0261 0.05487 0.04343 0.01371 -0.0983 0.11998 0.06689 0.02810 -0.1549 0.06967 0.07428 -0.4346 0.05362 0.01952 -0.0749 0.25507 0.22522 0.34075 -0.4385 0.12951 0.24532 0.18715 -0.0556 -0.2378 0.16444 0.16825 0.02862 -0.0231 -0.2387 0.35249 -0.0003 0.16708 0.25834 -0.1093 -0.0109 0.10547 0.21833 0.20255 -0.1715 -0.6790 -0.1083 0.08897 -0.2197 -0.3431 0.67479 0.33438 0.07602 -0.2666 0.37938 0.52966 -0.1364 0.06502 0.06118
坎德拉 -0.2138 -0.2783 -0.0878 -0.1373 0.32449 0.08918 -0.1315 0.06712 0.17053 0.10545 0.03646 0.25076 -0.1114 -0.1990 0.03861 -0.0861 0.32896 0.25733 -0.2400 -0.2359 0.30164 0.38367 0.08859 -0.1915 -0.5132 0.06917 -0.4856 0.25086 -0.0915 0.23058 -0.3495 0.11591 0.14570 0.14915 -0.2885 0.12342 0.05140 0.01250 0.13556 0.01436 0.08554 -0.3278 -0.0188 0.30080 -0.2224 -0.0657 -0.1157 -0.1609 -0.4636 0.06844 0.22829 -0.0214 -0.0069 -0.0533 0.14209 0.04260 -0.2445 -0.0697 0.66141 -0.0095 0.11119 -0.0308 0.02593 0.07449 0.10450 -0.1504 -0.1170 -0.0823 -0.1297 -0.3818 -0.1053 -0.2149 -0.2085 0.01921 0.16206 -0.1125 -0.0140 -0.2494 -0.1047 -0.0862 -0.1944 0.05639 -0.1524 -0.0282 0.11850 0.04852 -0.0611 -0.0960 0.06352 -0.0652 0.03680 0.25916 -0.2352 -0.1770 0.23685 -0.0660 0.40924 0.52570 -0.0724 0.43880 0.20086 0.37046 -0.1160 -0.3720 0.08998 -0.0163 -0.0115 0.03005 -0.1150 0.11412 0.12785 -0.0351 -0.2065 0.03170 0.03305 -0.0944 -0.0025 -0.0028 0.03465 0.07283 0.11881 -0.2081 -0.0152 0.08203 0.04905 0.00416 -0.0546 0.04665 -0.1401 0.04827 -0.0186 0.06907 0.02115 -0.0787 -0.0801 0.23645 -0.0035 -0.0285 0.29317 -0.0841 0.06688 0.06469 -0.0782 -0.0277 0.17607 0.01625 -0.0644 -0.0319 0.01023 -0.0453 0.03525 0.16679 0.11330 -0.2403 0.06602 -0.1562 0.04073 0.04968 0.36529 0.00539 0.08092 -0.0306 0.16911 0.00341 0.42101 -0.0693 -0.0618 -0.2001 -0.2631 0.23244 -0.1983 0.09054 -0.1528 0.19254 -0.3007 0.37040 -0.2293 0.08123 -0.1249 -0.0051 -0.0075 0.15094 0.06737 -0.3315 -0.1645 0.27145 -0.1819 -0.2855 -0.1494 0.02363 0.07417 -0.1417 0.01697 -0.1719 0.01783 -0.4014 0.11645 0.34586 -0.0517 0.11922 -0.0916 -0.0352 -0.6345 0.45688 -0.2076 -0.0840 0.22944 0.09239 0.25408 0.24572 -0.3457 0.03536 0.00020 0.05164 -0.4170 -0.0874 -0.0679 -0.5694 -0.2440 0.13225 -0.2904 -0.2171 0.06985 0.14272 0.06101 -0.4023 -0.2983 -0.1510 0.36340 -0.4897 -0.1571 0.04743 -0.4339 0.20422 0.07931 0.12426 -0.0525 0.32753 -0.2335 -0.1543 0.36500 -0.1722 -0.1761 0.23173 0.10125 -0.0059 0.25014 0.03390 -0.1234 -0.1738 -0.1282 -0.1387 0.27134 -0.2114 0.06974 -0.2198 -0.1111 0.25925 -0.1852 0.09062 -0.2770 -0.0260 0.45423 0.17700 0.66176 -0.1619 0.33596 0.20971 0.46473 -0.3792 -0.1355 0.25312 0.30315 -0.1643 0.05945 0.33404 0.46763 -0.0650 0.03596 -0.2680 -0.1813 -0.4679 0.11035 0.68096 0.62467 0.05445 -1.1796 -0.5690 0.18782 -0.4785 -0.2452 0.61089 0.28597 0.16824 -0.3458 0.53244 0.91454 0.29905 0.04701 0.00169
浸渍纸 -0.1936 -0.0586 -0.0955 -0.1644 0.03868 0.12110 0.02499 0.27421 0.00119 0.32398 -0.0235 0.24461 -0.3054 0.10737 -0.1393 0.25898 0.06194 0.21019 -0.2624 -0.0757 -0.0721 0.06882 0.06115 0.13210 -0.1225 0.03984 -0.1856 0.24039 -0.0022 0.04654 -0.0710 -0.1818 0.41305 0.09832 -0.1149 0.06438 0.01417 0.06524 0.15868 -0.1341 -0.1236 0.17028 -0.2290 -0.2092 0.08529 0.04434 0.13492 -0.0185 -0.0408 -0.0895 0.07819 -0.2947 0.04706 -0.1793 -0.0412 -0.0844 -0.2695 -0.0281 0.21566 -0.1258 -0.4043 -0.1529 -0.0468 0.00431 -0.1908 -0.1834 0.09162 0.38909 -0.1188 -0.1031 -0.0793 0.01181 -0.2208 0.19874 -0.0308 -0.3934 0.15059 0.47479 -0.2439 -0.0771 -0.1017 -0.1296 -0.1755 -0.1801 -0.1184 -0.2206 -0.0670 -0.1011 0.53883 0.19189 -0.2516 0.12060 0.06606 0.26833 -0.2080 0.01070 0.25241 0.15868 -0.0307 -0.0961 0.26966 -0.0632 0.04462 0.03965 -0.0427 0.06931 0.22408 -0.1242 -0.0223 0.04495 0.21147 0.09425 -0.0628 0.21715 -0.1770 0.14328 -0.0648 0.15153 0.20676 -0.0286 -0.0379 -0.0383 0.01195 0.06878 -0.2832 0.18075 -0.0820 -0.4035 0.09683 0.07868 -0.0612 -0.0319 0.34178 0.05559 -0.0627 0.06585 -0.0755 -0.0086 -0.0961 -0.5418 -0.1239 0.03153 0.38668 0.34138 -0.1726 -0.0285 -0.1603 -0.0963 -0.6722 -0.1153 0.18206 -0.1455 0.09381 0.09520 -0.1580 -0.1163 0.64119 0.28732 -0.0068 -0.1594 -0.0500 -0.1831 -0.1019 0.27023 -0.0012 -0.1521 0.10901 -0.2543 -0.2174 0.17704 -0.0698 -0.0075 -0.1251 -0.2329 -0.2469 -0.1180 0.09907 -0.3053 -0.1816 -0.0945 0.00349 -0.2865 0.00501 -0.0808 -0.2538 0.14574 -0.2077 -0.2529 -0.1840 -0.3227 -0.3807 -0.1775 0.29569 -0.2081 0.06732 -0.0360 0.39251 0.04072 -0.0210 0.12161 0.21187 0.14162 -0.3514 0.33371 0.06249 -0.1557 -0.2945 -0.0079 0.26861 -0.0805 0.05690 -0.3303 0.03610 -0.2106 -0.2235 -0.2623 -0.1020 -0.2511 -0.2421 -0.1641 0.06859 0.25933 0.16661 0.17707 0.15816 0.00035 -0.1391 -0.2973 0.20396 -0.0616 -0.0777 -0.0023 -0.3903 0.09143 -0.3163 -0.0566 -0.0445 -0.2086 -0.0680 0.05795 0.11662 0.11778 -0.0281 -0.1271 -0.0698 0.06327 -0.0311 -0.0254 -0.0747 -0.0877 -0.2787 -0.0509 0.07949 0.03579 -0.1522 -0.1541 0.03541 -0.0483 -0.2104 -0.0353 -0.0234 0.05709 0.18238 0.02603 0.24887 -0.1415 0.18518 0.04776 0.34660 -0.0094 -0.6887 0.10037 0.24763 -0.0536 -0.0064 -0.1119 0.38986 0.02586 0.36888 0.19033 -0.0720 0.32882 0.00712 0.31277 0.51669 -0.2588 -0.8812 -0.2148 -0.2750 0.04550 -0.3503 0.45099 0.41620 0.09586 -0.4237 0.86713 0.37421 0.11861 -0.0143 -0.1297
102年 -0.1262 -0.1182 -0.0078 -0.1475 -0.0985 -0.0582 0.08190 0.05552 0.08182 0.01644 0.01503 0.03343 0.11234 -0.0704 0.01527 0.06340 -0.0764 -0.1695 0.02192 0.02531 -0.0168 0.03242 0.07788 -0.0406 -0.1767 -0.0335 -0.1848 0.01612 -0.0496 0.07798 -0.2742 -0.1869 0.06047 0.06136 -0.0180 0.04240 -0.0820 -0.0171 -0.0792 0.12354 -0.0519 -0.1298 -0.0211 0.08700 0.04958 -0.1373 -0.0434 0.00748 -0.0183 0.07373 0.15326 0.10937 0.02760 -0.0340 -0.0446 0.04612 0.01188 0.04265 0.38282 0.00119 0.03835 -0.0704 -0.0932 0.10022 -0.0035 0.10794 -0.0740 -0.1272 0.03178 -0.1547 -0.1405 -0.0580 -0.0658 -0.1361 0.00129 -0.1330 0.00671 0.11290 0.00259 0.05552 -0.0266 0.07773 -0.2078 0.04118 -0.0010 0.04861 -0.0699 0.02345 0.01590 0.00092 0.08019 -0.0059 -0.1012 -0.0007 0.11622 -0.0149 0.07654 -0.0141 0.00436 -0.0261 0.14032 0.05657 0.00896 -0.1505 0.02814 0.03891 0.05829 0.02085 -0.0922 0.05743 0.06557 -0.0601 -0.1260 0.04308 0.08524 -0.0618 0.00890 0.01315 -0.0788 0.09054 0.02638 -0.0625 -0.0512 0.01389 -0.1169 0.03687 -0.0497 -0.0876 -0.0105 0.03691 -0.0252 0.03208 0.05678 0.01863 0.06857 0.04146 0.04904 -0.0691 0.11097 0.04695 0.02318 -0.0131 -0.0659 -0.0194 -0.1446 -0.1101 0.03185 0.07517 0.08520 -0.0637 0.03823 -0.0587 0.09140 -0.0176 0.09116 0.02413 0.06193 -0.0324 0.08637 0.04402 -0.0451 -0.0254 -0.1151 -0.1095 -0.0237 0.05646 -0.0461 0.12235 0.01020 -0.0623 0.09648 0.09480 -0.1077 -0.0201 -0.0101 -0.0318 -0.2040 -0.0732 0.00488 -0.0820 0.15598 0.00526 -0.0518 -0.1589 -0.0775 0.02932 -0.0635 -0.1964 -0.0295 0.00641 -0.0322 -0.1220 0.15839 0.01191 -0.0057 -0.0667 -0.0825 -0.0113 -0.0405 -0.0231 0.08124 -0.1207 -0.1151 0.02320 -0.0647 -0.0910 0.05090 -0.0089 0.05039 0.05330 0.14411 -0.0285 -0.0678 0.12135 -0.0736 -0.0609 0.04517 -0.0969 0.04491 -0.0846 0.00567 -0.0632 -0.0213 0.13652 0.13481 0.07783 -0.1162 0.12243 0.08251 -0.1759 0.05718 -0.0215 -0.0301 0.14585 0.05840 -0.1226 -0.0521 -0.0514 -0.1851 0.04670 0.11834 -0.0145 -0.0043 0.21853 0.04353 -0.0630 -0.0175 0.11304 -0.0695 -0.2257 0.04639 -0.1206 0.02081 0.00467 0.08947 0.05599 -0.0467 0.13356 -0.0307 0.02223 -0.0830 0.15811 0.18148 0.08929 0.19108 -0.1545 0.29789 0.15782 0.12100 0.08735 0.01245 0.00940 0.16495 -0.1285 0.09385 0.04243 0.07533 0.05731 0.16063 0.08251 -0.1435 -0.0834 0.00392 0.21684 0.27885 -0.0562 -0.2523 -0.1375 -0.0987 0.01736 0.02908 0.36932 0.23433 0.11499 -0.2733 0.12552 0.15365 0.07922 -0.0394 0.11065
专用车 -0.1390 -0.4130 -0.4066 -0.3304 0.20712 -0.0196 -0.0030 0.11528 -0.2025 0.04884 0.23225 -0.1643 0.29329 0.04099 0.13748 0.43222 -0.0009 0.59340 -0.1864 -0.1527 0.43936 0.40175 -0.4229 0.00411 -0.0756 0.18241 -0.3417 -0.1034 0.06572 0.13931 -0.0859 -0.0399 0.00084 0.23719 -0.1911 0.19018 -0.1801 -0.1516 0.15149 -0.0320 0.04935 -0.3255 0.06682 0.17603 -0.0651 0.02472 -0.2094 -0.1394 -0.3331 -0.0732 -0.1238 -0.2716 0.02859 -0.2748 0.35803 0.01375 -0.5379 -0.3018 0.98852 0.15379 -0.3831 -0.1299 0.09196 0.05605 -0.1614 0.09341 0.08218 0.10953 -0.0986 0.18137 -0.1269 0.28929 -0.1081 0.44225 -0.1450 -0.2841 0.17879 0.04303 0.02175 -0.0986 0.41714 0.08074 0.35896 0.08635 -0.1831 0.03621 -0.0100 0.03731 0.33645 0.13813 -0.2422 0.06849 0.05053 -0.0199 0.00456 0.01174 -0.0031 -0.1552 -0.0122 0.09551 -0.1321 0.09051 0.02001 -0.2049 -0.0465 -0.0282 0.65442 -0.0891 0.15592 0.04056 -0.0991 0.23272 0.10558 -0.1239 0.17263 0.19306 -0.0484 0.03446 -0.1604 0.22468 0.25337 -0.1110 0.06638 0.04583 -0.2486 0.06412 -0.1383 -0.2464 -0.1353 0.06211 0.09127 -0.0780 0.23627 0.36447 0.16715 -0.2209 -0.0707 0.46646 -0.1210 -0.3112 -0.0351 -0.2405 0.03940 0.01947 0.18900 0.02379 -0.0754 -0.1468 -0.3921 -0.0721 0.06785 -0.2486 -0.1382 0.16760 -0.0261 -0.2441 0.20614 0.11196 -0.1714 -0.1065 -0.5342 0.24628 0.01293 0.28803 -0.0390 -0.3889 -0.0738 -0.1079 -0.0939 0.09605 -0.0982 -0.0597 0.34573 -0.3680 -0.2221 -0.2802 0.12114 0.15612 -0.1895 -0.0025 -0.2687 0.11358 0.04527 -0.1411 -0.3054 0.12873 0.04289 -0.2028 -0.1920 -0.3201 -0.2664 -0.4983 -0.0916 -0.1595 -0.3184 -0.2874 0.71487 -0.1065 0.09335 -0.2652 -0.1484 0.17989 -0.2919 0.39370 0.19245 -0.5072 -0.1815 0.21321 0.57874 0.09899 0.19000 -0.0806 0.15930 0.20576 -0.3287 -0.3008 -0.1325 -0.1370 -0.1838 -0.1990 0.14929 0.21523 0.16790 0.25895 0.24637 -0.1087 -0.5871 -0.2118 0.38761 -0.1847 -0.0315 -0.0631 -0.0594 -0.0530 -0.5282 0.09573 -0.0248 -0.4273 -0.2247 0.18953 0.13966 0.04134 -0.3090 0.27676 0.02538 0.07647 -0.2101 -0.1299 0.02961 0.13545 -0.2394 0.07747 -0.0178 0.16612 0.22651 -0.3417 -0.1342 -0.0407 -0.2208 -0.1598 -0.3027 0.06458 0.16949 0.32060 0.44555 0.02670 0.23497 -0.0370 0.63334 -0.3362 -0.5322 0.04256 0.57899 -0.3032 0.34286 0.25376 0.67353 0.01017 0.59806 0.18031 -0.9225 0.22029 -0.3406 0.65775 0.59508 -0.2204 -1.1495 0.04728 0.05045 -0.3525 -0.3649 0.46575 0.25526 0.00364 -0.2868 0.90685 0.82142 0.06682 0.01538 0.42434
生草乌 -0.0401 -0.2427 0.10118 -0.1561 0.12334 0.00263 0.02094 0.09909 0.28119 -0.0340 0.09078 0.09104 -0.0880 -0.0674 0.07724 0.20143 -0.1242 -0.0439 0.17411 -0.0052 0.07418 -0.0597 -0.2363 -0.0372 -0.1715 0.03567 -0.3157 0.04751 0.11615 0.17214 -0.2482 -0.1573 0.02524 0.08010 0.04595 -0.0293 0.09674 -0.0925 0.18587 0.07763 -0.1199 0.05075 -0.1173 0.12539 -0.0385 0.14097 -0.1994 0.12530 -0.3314 -0.0137 -0.0272 -0.1840 -0.0630 -0.1523 -0.1078 -0.0557 -0.0871 0.00503 0.32443 0.00173 -0.1202 0.00129 0.05120 -0.0214 -0.1737 -0.0911 0.03088 0.06363 -0.0407 -0.1904 -0.0566 -0.2144 -0.1396 0.16127 0.18352 -0.0684 0.13943 0.09377 -0.0874 -0.0133 -0.1145 0.14962 -0.3932 -0.1151 -0.1108 -0.1798 -0.0323 0.09192 0.10098 0.09736 0.13065 -0.1772 -0.1274 0.13967 0.16443 -0.0006 0.23994 0.23286 -0.1159 0.03083 0.23308 0.07393 0.03738 -0.2802 -0.0258 0.15424 0.18442 -0.0184 0.01188 0.26338 0.03273 0.08369 -0.1979 0.09521 0.06393 -0.0424 -0.0397 -0.0794 0.13710 0.11104 -0.0767 -0.0358 -0.1676 -0.1568 -0.0425 -0.0790 0.02800 -0.0193 0.15135 -0.0854 -0.0992 0.19248 0.12736 -0.0794 0.26723 0.00751 0.04230 -0.0339 0.00499 -0.0880 -0.0377 -0.0763 0.08641 0.06959 0.04394 0.01201 -0.0852 -0.0338 -0.1561 -0.0641 0.12135 -0.1985 -0.0556 0.14098 0.05890 -0.0458 -0.0671 -0.0003 -0.0215 0.07091 -0.0167 0.12175 -0.1187 0.05830 0.10197 -0.0056 -0.0343 -0.1877 -0.1997 0.20008 -0.1138 0.00568 0.04077 -0.0393 -0.0332 0.07979 -0.0744 0.00705 0.05826 -0.0302 0.08780 -0.0757 0.15749 0.07339 -0.2269 0.11961 -0.1856 -0.1151 -0.0845 -0.0288 -0.0587 0.07809 0.24207 -0.0430 -0.0370 -0.0895 0.11187 0.02661 0.03065 -0.1344 0.16189 -0.0351 -0.3112 0.23073 -0.1408 -0.1340 0.04567 0.09407 0.28963 0.12566 -0.0898 0.06169 0.11984 0.06685 -0.4128 -0.0730 -0.2262 -0.2325 -0.1484 -0.1362 0.04753 0.12116 -0.0309 0.27040 0.06947 -0.1065 -0.2375 -0.0750 0.28037 -0.1370 0.03797 -0.0140 -0.0794 0.11806 -0.0146 -0.0351 -0.0637 -0.1718 -0.1281 0.05937 0.08640 0.24233 0.00223 0.12230 0.00850 -0.1555 0.09486 0.21724 -0.0596 -0.3336 -0.1251 -0.0643 -0.0516 -0.0542 0.19979 -0.1420 -0.0303 0.05186 -0.2023 0.01282 -0.0754 0.13501 0.25288 0.04903 0.27343 -0.2927 0.34304 0.57656 0.17301 -0.1352 -0.1916 0.14037 0.24466 0.07551 -0.0071 -0.0201 0.31914 -0.1042 0.14654 -0.0376 -0.4698 0.00286 -0.0042 0.30689 0.40266 -0.3063 -0.8679 0.04738 0.06858 -0.3028 -0.2723 0.59801 0.37124 0.13811 -0.3243 0.71987 0.61927 -0.0735 -0.0630 0.04327
稳定系统 -0.0551 -0.4195 -0.1475 -0.2710 -0.0085 0.09735 -0.0558 0.00790 0.10587 0.01800 0.02165 -0.1770 0.00134 -0.0419 0.18924 0.48550 -0.0072 0.37521 0.03378 -0.2379 0.27564 0.21883 -0.3310 0.02847 -0.2265 -0.1735 -0.3086 -0.1713 -0.1299 0.19228 -0.2924 -0.0156 0.18438 0.04230 -0.2225 0.09720 -0.0444 0.02077 0.07134 -0.0750 0.03609 -0.2105 -0.0015 0.40408 -0.0679 0.05840 -0.1517 0.11237 -0.4259 -0.0832 -0.0432 -0.2337 0.03977 -0.2096 0.27720 0.01503 -0.4632 -0.1394 0.72419 -0.0827 -0.0445 0.01458 0.09019 0.10394 0.00615 0.03414 -0.0236 -0.1104 -0.1346 -0.2694 -0.1554 -0.0077 0.09119 0.01351 -0.0624 -0.2766 0.03992 -0.0143 -0.1190 -0.1880 0.01951 0.03853 0.04130 0.15277 -0.1212 -0.0533 0.05484 0.17764 0.29828 -0.0004 -0.1003 0.21655 -0.0460 0.07667 0.05322 0.09229 0.07315 -0.0782 0.20830 -0.0031 0.16216 0.15814 0.07210 0.03043 0.01528 0.09508 0.25210 0.04708 0.09379 -0.0006 -0.1584 0.09404 0.01623 -0.0444 -0.1135 0.12727 -0.0888 -0.0258 0.05145 -0.2091 0.23857 -0.0260 -0.1203 0.18151 -0.1412 -0.0006 -0.1685 -0.3503 -0.1234 0.02463 0.11770 -0.1558 0.02493 0.23767 0.27643 -0.0138 0.16644 0.22507 -0.2170 -0.4938 -0.1880 0.01497 0.27482 -0.0945 0.07555 -0.0693 -0.1163 -0.0229 -0.0853 0.04528 0.16109 -0.2152 0.00872 0.19327 -0.2071 -0.1427 0.19988 0.25974 -0.1576 0.00278 -0.2778 0.04212 -0.2440 0.21696 -0.1869 -0.2238 0.13114 -0.0059 -0.2463 -0.0728 -0.2258 -0.0331 0.04698 -0.0452 -0.1711 -0.0766 -0.1407 0.04759 -0.1555 -0.1237 -0.1373 -0.0390 0.23157 -0.1505 -0.1758 0.38597 -0.1787 -0.1596 -0.0363 -0.2048 -0.0653 -0.4468 0.20114 -0.2351 -0.1075 -0.0835 0.22129 0.17942 -0.0486 -0.0911 -0.0046 0.17403 -0.3734 -0.1448 -0.1235 -0.3763 0.10595 0.00459 0.25272 -0.1243 -0.0041 -0.0825 0.06727 -0.0662 -0.3779 0.01533 -0.0965 -0.5301 -0.2180 0.08602 0.11378 -0.0477 0.05509 0.40471 0.08398 -0.0957 -0.3738 -0.1206 0.28513 -0.2415 -0.0910 -0.0180 0.04016 0.06927 -0.4007 -0.0300 -0.1202 -0.0661 -0.2554 0.11774 -0.2407 -0.1399 -0.1343 0.35541 -0.1031 0.15494 -0.3742 0.01250 0.16474 0.31870 -0.2202 -0.1277 -0.0923 0.15703 -0.0247 0.02242 -0.0334 -0.0387 -0.2935 -0.0739 -0.2651 0.00648 0.09802 0.35675 0.61453 0.21376 0.20865 0.13091 0.05330 -0.2697 -0.6945 0.02058 0.42197 -0.2632 0.42045 -0.1975 0.76001 0.18254 0.26633 -0.2027 -0.3618 0.09004 -0.0248 0.10049 0.58785 -0.3283 -0.7304 0.12250 -0.1725 -0.1734 -0.5325 0.41082 0.29805 0.05942 -0.1399 0.57603 0.96148 0.06977 0.36069 0.26652
优惠待遇 0.08955 -0.2473 -0.0980 -0.0124 -0.1844 -0.0339 -0.3071 0.05486 -0.0871 -0.0260 0.20440 -0.3002 0.16069 -0.0198 -0.0294 0.16023 0.11011 0.05133 0.08895 0.13113 0.09042 0.35543 -0.3435 -0.0160 0.07451 0.29049 -0.2028 0.02637 0.08672 0.20969 -0.1504 -0.0527 0.04460 0.19193 -0.0981 -0.0232 -0.0677 -0.1328 0.09685 0.25518 -0.2867 -0.1964 0.01043 0.16189 -0.2246 -0.0534 -0.2224 -0.0061 -0.1328 0.07057 0.14454 -0.0074 0.22160 -0.0749 0.24188 0.07666 -0.4348 -0.1082 0.46520 -0.0744 0.10642 0.01402 0.08565 -0.1459 0.02862 0.12985 0.16274 0.04904 -0.1308 -0.2668 -0.0475 0.02047 -0.1197 -0.1765 -0.0163 -0.0599 -0.1921 0.00271 -0.0316 -0.1499 0.07738 0.23759 0.06667 0.18962 -0.0106 0.08274 0.22999 0.05185 0.26040 -0.0569 -0.1281 0.22327 -0.0814 -0.0517 0.01883 -0.0859 0.19781 0.28875 -0.1310 -0.1022 0.25275 0.25595 0.30301 -0.1806 -0.0526 0.26949 0.38006 0.03141 0.14811 0.18148 -0.0144 0.00033 -0.2380 0.05761 0.04101 0.16852 -0.2072 -0.0532 0.04761 0.12444 -0.0456 -0.0344 -0.0083 0.03000 0.03287 -0.1544 -0.0816 -0.0587 0.00778 0.38939 -0.0446 0.08996 0.42546 -0.0988 -0.0222 -0.2571 0.11408 0.03073 -0.0290 -0.0512 -0.2195 0.07647 -0.1217 -0.0765 -0.1103 -0.1465 -0.0499 0.00164 -0.4383 -0.1932 0.20236 -0.1367 0.02628 0.04441 0.24540 -0.0007 -0.1681 -0.0345 -0.0361 0.13687 -0.0265 0.27514 -0.4455 0.04199 -0.0071 0.08438 0.16838 -0.0321 -0.1719 0.13686 -0.0752 0.25407 0.11860 0.19080 -0.1088 -0.1143 0.03115 0.07204 0.14016 -0.2271 -0.1289 0.24298 0.34987 -0.3350 -0.1438 0.45729 0.03380 -0.2977 0.11922 -0.0664 -0.0419 -0.1518 -0.0809 -0.0474 0.09263 -0.3069 0.40459 -0.1498 0.15305 -0.0407 -0.0774 0.04891 -0.3438 0.17790 -0.3603 -0.4684 -0.0562 0.13172 0.42636 0.34178 -0.0653 0.15271 -0.0353 0.35969 -0.4798 -0.3374 -0.1182 -0.4165 -0.2994 0.08433 0.20135 0.16833 0.03411 0.26794 0.07970 -0.0385 -0.6585 0.04657 0.35106 -0.4515 -0.0969 -0.3392 -0.0892 -0.1002 -0.2546 -0.1188 -0.0301 -0.0630 -0.3126 0.17396 -0.2806 -0.0865 -0.1567 0.47827 0.07465 0.27065 0.13366 0.15825 -0.0894 0.20242 -0.2521 -0.0725 -0.1257 0.24956 0.23163 -0.1923 0.08982 -0.0808 -0.1779 0.17740 -0.1374 -0.0216 0.44102 0.24610 0.49866 -0.2353 0.22901 0.22824 0.26497 -0.0665 -0.0962 0.03740 0.30349 -0.2328 0.12624 -0.0516 0.64173 0.10134 0.33571 -0.0387 -0.3481 0.01207 -0.1855 0.49784 0.58864 -0.1973 -0.7599 -0.1120 -0.1575 -0.1474 -0.1167 0.29311 0.21200 0.08449 -0.3051 0.43043 0.81943 0.43541 0.46769 0.42075
Tang -0.3414 -0.5246 0.01549 -0.3082 0.57383 0.07219 -0.3025 0.22524 -0.1760 -0.1907 0.16469 -0.1364 0.25457 0.01718 0.14980 -0.0132 -0.2275 0.08200 -0.1112 0.03363 0.26344 -0.1350 -0.5963 0.35604 -0.5572 0.19058 -0.4126 -0.1049 0.19341 0.04823 0.08507 0.07029 0.02239 -0.2564 0.11689 0.03577 0.09642 -0.1493 0.18901 0.08309 0.11471 -0.4134 0.24951 0.18130 -0.1561 0.03848 -0.0271 0.12679 -0.6020 -0.0982 -0.1236 -0.3965 0.04306 0.05948 0.16505 0.01775 0.13296 0.29714 0.09446 -0.0309 0.12153 0.32152 -0.0359 0.03825 -0.0947 -0.1598 -0.1730 0.05339 -0.1302 -0.1686 -0.1243 0.03070 0.18726 -0.3181 0.20769 -0.1165 0.14581 -0.6378 0.09921 -0.5077 -0.1522 0.22661 -0.0293 -0.0861 0.05152 0.01625 -0.2590 0.11828 0.18364 -0.1139 0.30937 0.08005 -0.0496 0.09070 -0.0298 -0.2044 0.01836 0.20363 0.15371 -0.1858 0.20349 0.19518 0.27853 0.15406 0.26372 -0.4045 -0.3328 -0.1701 0.16761 -0.0967 -0.1740 -0.1647 0.09770 -0.0430 -0.0131 -0.1983 0.18899 0.42941 0.01898 -0.2010 -0.2250 -0.1891 -0.2893 0.03716 0.03461 -0.0004 0.05277 -0.2229 -0.0673 0.19980 0.02842 -0.2048 -0.2517 0.26558 -0.2879 0.29295 -0.2862 0.16245 0.30727 -0.0529 -0.0423 0.12197 -0.1260 -0.0516 -0.0001 0.16384 -0.1352 -0.0275 0.11079 0.07462 -0.1773 -0.1477 -0.3498 -0.3000 0.24908 0.00258 -0.1161 -0.0334 -0.0754 0.09902 -0.0944 -0.2333 0.20892 0.11751 0.10518 -0.1046 0.29496 0.02282 0.01211 0.44458 -0.0559 -0.1296 0.03314 -0.3748 0.15009 -0.1232 0.01685 -0.0746 -0.0026 0.00518 0.29614 0.20434 0.03145 -0.0993 0.22611 0.12603 0.04196 0.09076 -0.0110 0.05930 -0.0502 -0.1808 0.00621 -0.1623 0.19787 -0.1421 0.05016 -0.1547 0.06742 0.00405 -0.1411 -0.1822 0.04060 -0.4191 0.22370 -0.1703 0.08445 0.02312 -0.3467 -0.1882 0.05280 -0.1039 0.08298 0.08795 -0.1258 -0.1696 0.55492 0.32378 -0.0042 0.27868 0.08489 0.01096 0.02349 0.03772 -0.2170 0.12333 -0.1977 -0.1556 0.00437 0.04986 -0.0241 -0.2240 -0.0905 0.05453 -0.1545 0.08130 0.22863 0.47870 -0.0264 -0.0581 0.25152 0.09151 0.02902 -0.2280 -0.3480 0.15163 0.29623 0.44301 -0.0850 0.12303 0.16463 -0.2088 0.13449 -0.1537 0.50790 0.04466 -0.0295 -0.0610 -0.0688 0.17913 0.13594 -0.1116 -0.1483 0.09976 0.06472 -0.1143 0.32567 0.23813 0.32687 -0.2419 -0.0341 -0.2659 0.02181 0.01579 0.43049 0.03429 -0.0407 0.08084 0.23688 -0.1992 -0.1419 -0.0351 0.10819 -0.0012 -0.2063 0.05505 -0.5873 -0.0530 -0.1072 -0.0231 -0.0132 0.35184 0.07328 0.17541 -0.0543 0.03958 0.08392 -0.0870 0.03299 0.69375
苏格拉底 -0.0778 -0.5567 0.04290 -0.3321 0.10438 -0.0764 -0.0401 -0.1952 0.32683 0.32434 -0.1144 0.00298 -0.0373 0.12101 -0.0331 0.18346 0.52076 -0.0511 -0.2455 -0.3746 0.34627 0.14874 -0.2726 -0.1602 0.31944 -0.0183 -0.1007 0.06580 -0.3060 0.37160 -0.2855 0.21664 0.56300 -0.2052 -0.4733 -0.0909 -0.1296 -0.1351 0.22161 0.17161 0.48907 -0.2147 0.04275 0.37563 0.12605 -0.0412 0.00337 0.14985 -0.5652 0.04419 0.23117 -0.0834 0.18600 -0.4878 0.07869 -0.2528 -0.3224 -0.3152 0.64731 -0.2727 0.07516 0.01443 0.58061 0.45397 0.25540 0.11899 0.04177 -0.1844 0.29224 -0.4355 -0.2954 -0.0955 -0.1177 -0.5896 -0.2670 0.00671 -0.1365 0.26497 -0.1165 0.16398 -0.4562 0.16408 -0.3536 0.24827 0.00469 0.21812 -0.1448 0.35932 -0.1944 0.18185 0.02412 0.01211 -0.4313 -0.2945 0.08311 0.05049 -0.0215 0.03156 0.08381 0.18928 0.34239 0.39211 0.04464 -0.6616 0.04169 0.24282 0.26091 0.01588 -0.1757 0.34821 -0.0747 0.30510 -0.2704 -0.2564 0.26049 0.05141 -0.1196 0.04671 -0.3289 0.13318 -0.1315 0.04940 0.31904 -0.2224 -0.2585 0.48780 -0.2815 -0.4569 -0.4669 -0.0514 -0.0594 -0.2585 -0.2476 0.21446 0.14700 -0.0080 0.03095 0.00989 -0.1556 -0.2990 0.27409 0.32589 -0.0341 0.07179 -0.2958 0.22830 -0.2783 -0.3679 0.17938 -0.1003 -0.3302 0.05472 0.00250 -0.0163 -0.2180 -0.3246 -0.0197 0.14839 0.22464 0.56043 0.09380 -0.0075 0.12864 -0.0579 0.18688 0.09841 -0.0864 -0.1183 -0.2840 0.40065 -0.2436 0.14563 0.62662 0.01695 -0.0793 -0.2431 0.05171 -0.0741 0.41729 0.19828 0.10345 -0.0404 0.17891 0.18361 0.17133 0.24958 0.15040 0.07637 -0.4103 -0.0006 -0.1425 -0.5744 0.50061 -0.0719 -0.2062 0.19009 0.04683 -0.0846 -0.2035 -0.3160 0.36390 -0.1460 -0.5554 0.40378 -0.0269 -0.3347 0.39274 0.09270 0.08686 0.26586 0.13107 -0.3519 0.26831 0.27729 -0.4514 -0.2082 -0.1352 -0.4623 -0.0830 0.05184 -0.4997 -0.2529 0.11247 0.07890 -0.1167 0.04666 -0.1472 0.25419 -0.0275 -0.1185 -0.1777 0.01652 -0.0975 0.29268 -0.3941 0.29111 -0.4169 -0.2787 -0.6208 0.03500 -0.0504 0.01446 -0.1598 0.02013 0.03300 0.28107 0.03415 0.19434 -0.0273 0.43591 -0.1571 -0.0550 0.10520 0.30861 0.09659 -0.2012 -0.4626 -0.2127 -0.1784 -0.0365 -0.3763 -0.0856 0.12265 0.26029 0.09279 -0.1245 -0.2081 0.87377 0.45478 -0.1309 -0.5804 0.34460 0.09206 0.29586 0.10066 0.00568 0.37988 -0.3181 0.02388 -0.3673 0.10356 -0.1277 0.21187 0.07715 0.49190 -0.2484 -1.0948 -0.5525 -0.0491 -0.7175 -0.4887 0.64507 0.02328 0.49799 -0.5735 0.65576 0.89505 0.47397 0.27082 0.02375
芳香族有机酸 -0.1828 -0.2473 0.16068 -0.1952 0.17378 -0.0544 -0.0621 0.17333 0.32441 0.08205 0.01365 0.15083 -0.3638 -0.0328 0.04866 0.39988 -0.0257 0.04935 -0.2174 0.08197 0.06694 -0.2102 -0.1729 0.05068 -0.5767 0.24879 -0.1674 0.37537 -0.1535 0.26394 -0.3582 -0.1375 0.25003 0.03375 -0.1387 0.08987 -0.0928 -0.0419 -0.0328 0.09285 -0.1860 0.01216 -0.0706 0.18994 -0.2401 0.21313 -0.0973 -0.0012 -0.6972 -0.1290 -0.1717 -0.1477 0.05163 -0.2671 0.02101 -0.0881 -0.2232 0.31091 0.25985 0.07377 -0.1184 -0.0447 -0.0548 0.15087 0.20884 -0.0926 0.03487 0.17474 -0.2729 -0.1606 0.11115 0.25624 0.00468 0.13198 -0.1555 -0.2068 0.08490 0.16726 -0.1028 0.08542 0.03692 -0.1440 -0.3792 -0.1709 -0.1655 -0.0247 0.27384 0.04654 0.24608 -0.1208 -0.1364 0.05836 -0.1713 0.18418 0.19036 0.11142 0.13918 0.13923 0.05712 0.11337 0.12264 -0.1056 -0.1158 0.20663 -0.3169 -0.0228 0.22603 -0.0250 0.08931 0.02854 0.03785 -0.1176 -0.3200 0.39789 0.07835 0.22496 0.16560 0.00174 -0.0127 0.11418 -0.3785 -0.3013 0.16603 0.25420 -0.2774 0.25244 0.03371 -0.4375 0.11653 -0.1012 -0.1580 0.17247 0.04234 0.07258 0.14221 0.01913 -0.0314 0.24297 -0.1676 -0.2342 -0.0103 -0.0538 0.44539 -0.0412 0.00422 0.06856 -0.0975 -0.0039 -0.2872 0.02734 0.09404 -0.2292 -0.2474 0.10798 0.03846 -0.0184 0.10537 0.05749 -0.0892 -0.0325 0.13088 -0.0977 -0.0509 0.38462 -0.2361 -0.2155 0.08751 -0.2767 0.06429 -0.0881 -0.0505 -0.0920 0.14722 0.08020 -0.1429 0.23403 0.18395 0.04149 0.26234 -0.0589 0.42974 0.17168 0.55769 0.02527 0.09534 0.09575 -0.0097 -0.1050 -0.1024 -0.2288 -0.0988 -0.1977 0.36810 -0.1577 0.14822 0.13247 0.00952 -0.0176 0.28630 -0.0061 0.08051 -0.1123 -0.3120 0.19566 -0.0462 -0.1666 0.23161 0.08650 0.31548 -0.3339 0.00351 -0.0159 -0.0577 -0.0307 -0.0318 -0.2329 0.07222 -0.2649 -0.5295 -0.1671 -0.1475 0.06964 0.06938 0.08278 -0.0972 0.07465 -0.3375 -0.3045 0.07933 -0.1735 -0.1658 0.02739 0.07733 -0.2273 -0.0522 0.22055 0.02020 0.37796 0.04281 -0.0623 0.05737 -0.0227 -0.0941 -0.1217 0.04220 0.16975 -0.0754 -0.0316 0.41369 0.38484 -0.4178 0.10377 -0.6604 0.29841 -0.0914 0.31741 -0.0252 -0.2639 -0.4552 0.20793 -0.2388 -0.0624 0.29066 -0.0235 0.29397 -0.1143 0.08431 0.47051 -0.1297 -0.2034 -0.5862 0.02867 0.17389 0.06838 0.04126 -0.5277 0.38063 -0.0496 0.13248 0.12013 -0.2870 0.55492 0.03781 -0.1273 -0.1920 -0.6241 -0.3273 0.17411 -0.3378 -0.1140 -0.5918 0.58768 0.27113 0.32359 -0.4367 0.48970 0.35181 -0.1178 0.40322 0.21666
帮工 0.11776 0.08167 -0.1067 0.28693 0.38013 -0.1115 -0.1630 0.16134 -0.0631 -0.2326 -0.2829 -0.2733 -0.1696 0.08501 0.28576 0.42526 0.24236 0.27759 0.51010 0.16990 -0.0527 0.20409 0.09224 0.20278 -0.0007 0.31348 -0.1386 0.00065 -0.0414 0.06632 0.09936 0.10520 0.21580 0.12856 0.05531 0.07239 -0.2626 0.07226 0.19342 -0.1686 0.05112 0.10349 -0.0490 0.25198 0.04676 0.05939 0.02410 0.23537 -0.1032 0.19686 0.15017 -0.2937 0.07512 -0.0014 0.20565 0.11050 -0.4241 -0.0350 0.58097 -0.4241 -0.0708 0.01620 -0.1166 -0.2164 -0.2748 -0.0145 0.04576 0.35465 0.16852 -0.0937 0.13963 0.49196 -0.1045 -0.0010 0.17821 -0.1748 0.11112 0.23931 0.18623 -0.1024 -0.0947 0.22101 -0.2124 0.23657 0.10901 -0.1497 0.20174 -0.1380 0.10021 0.27784 -0.0504 -0.1381 -0.3184 0.03474 -0.1458 0.04745 0.37854 0.08945 -0.2109 0.02342 0.33540 0.46919 0.26642 -0.3045 -0.0335 0.13111 0.27504 -0.0907 -0.0417 0.33510 -0.2067 0.11642 -0.0239 0.10777 -0.0173 -0.2032 -0.2162 -0.0431 0.18303 0.11090 0.09055 0.10531 -0.0501 0.00793 -0.0258 0.17858 0.03358 -0.0725 -0.0183 -0.0375 0.00926 0.28862 0.37576 0.08550 0.06959 0.13465 -0.1297 0.09516 -0.1168 0.09501 -0.3179 -0.2836 -0.3327 0.17726 0.22027 -0.0984 -0.2166 -0.2893 -0.2187 -0.2643 0.10113 -0.4599 -0.1485 0.19413 0.19283 -0.3839 -0.2574 0.24267 -0.1281 0.20595 0.09076 0.21237 -0.5706 0.10716 -0.1689 -0.1600 -0.2502 0.18145 -0.4325 0.14312 -0.1282 0.15627 0.09122 -0.1203 -0.2733 -0.1015 -0.0830 -0.2315 -0.1075 -0.2081 -0.2327 0.15010 0.26201 -0.0513 -0.3636 0.52057 -0.2359 -0.4625 -0.3564 -0.1848 -0.2411 -0.5495 -0.1700 -0.5729 -0.1140 -0.5630 0.50757 -0.0430 0.06841 -0.2463 -0.0036 -0.0548 -0.5931 0.10652 -0.3936 0.14756 -0.0908 -0.0130 0.65395 -0.1639 -0.2419 -0.0520 0.60395 0.25728 -0.5802 -0.0177 -0.1218 -0.2711 0.13823 0.04570 0.14190 0.33728 -0.0819 0.83654 0.24631 -0.0981 -0.6079 -0.3225 0.41883 -0.3888 -0.1907 -0.0611 -0.2177 -0.0078 -0.5327 0.07811 0.05292 -0.6262 -0.3281 -0.0320 0.53116 0.34599 0.09624 0.22462 0.18505 0.14113 0.34283 -0.0779 0.09891 0.09236 -0.3113 0.16968 -0.0601 0.19970 -0.0844 -0.2495 -0.0306 0.31602 -0.1732 0.07775 -0.0754 0.21757 0.07790 -0.2236 0.73556 0.09116 0.21902 -0.0224 0.60067 -0.1309 -1.0127 0.41567 0.52654 -0.3937 0.41439 -0.0708 0.54569 -0.0441 0.26946 -0.1341 -0.4166 0.43305 -0.5369 0.73797 1.04958 -0.5252 -1.1898 -0.1577 -0.0573 -0.2255 -0.1500 0.59805 0.47090 0.21301 -0.3613 0.82941 0.64877 0.84020 -0.1486 -0.2312
转子莲 -0.0462 -0.1461 0.03688 -0.1151 -0.0425 -0.0458 -0.1567 0.00332 0.02247 -0.0095 0.03046 -0.0296 -0.0359 -0.0076 0.12996 0.25789 0.02015 0.27927 -0.3456 -0.0812 0.27940 0.24101 -0.3097 0.01263 -0.4525 -0.0131 -0.3631 -0.0435 0.12158 0.16466 -0.0510 -0.0665 0.06606 -0.0064 -0.1324 0.13927 0.16050 0.01233 -0.0456 0.14292 0.37252 0.05758 0.01919 0.48757 -0.1239 -0.0806 -0.2721 -0.0711 -0.3226 -0.0210 -0.0080 -0.2594 0.07720 -0.1817 0.02551 -0.1968 -0.3551 -0.0779 0.89859 0.11729 -0.1650 0.02251 0.25288 -0.1344 -0.0470 -0.0221 -0.0968 0.01291 0.17070 -0.2853 0.08220 0.11149 -0.0170 0.17132 0.10591 -0.3979 -0.0573 0.10309 -0.1760 -0.0303 -0.0589 0.04438 0.22878 0.10598 -0.1462 -0.2251 0.19165 0.12013 0.33539 0.09424 -0.1361 -0.0044 -0.1419 0.21866 0.09320 0.15829 -0.0199 0.06148 0.06152 -0.0600 0.19780 -0.0374 0.00744 -0.0881 -0.0468 -0.1727 0.24007 -0.0533 0.01492 0.00932 -0.3133 0.04217 0.15928 0.06383 -0.0638 0.05486 -0.0583 -0.1335 -0.0870 0.26622 -0.1464 0.05507 -0.0336 -0.1319 -0.1644 -0.0090 -0.1242 -0.0983 -0.0581 -0.0855 -0.0484 -0.0735 0.07212 0.04879 0.18803 -0.0569 -0.0597 0.05915 -0.1672 -0.1966 -0.0660 0.17232 0.17590 0.01784 0.04648 0.14805 -0.1207 0.11590 -0.2884 -0.0253 -0.0825 -0.3130 0.00797 0.00379 -0.1337 -0.2110 -0.0681 0.45049 -0.0629 0.10467 0.02034 0.03471 -0.2015 0.07793 -0.1619 0.03407 0.37444 -0.2595 -0.1204 0.06858 -0.0921 -0.2871 0.00236 -0.1797 -0.2661 -0.2247 0.25081 0.07526 0.01693 0.07484 -0.1101 -0.0770 0.06247 0.04671 0.10174 0.39029 -0.2456 -0.0683 -0.3638 -0.2389 -0.0601 -0.1422 0.07338 0.00506 0.01194 -0.0574 0.34258 0.10211 -0.1474 -0.1667 0.25955 0.09821 -0.3703 0.43098 -0.2578 -0.3349 0.03998 0.11840 0.32025 0.02665 -0.0273 -0.1888 0.01329 -0.2308 -0.4818 -0.2059 -0.0782 -0.0600 -0.1107 0.07320 0.01535 -0.0769 0.09104 0.22805 0.05058 -0.0877 -0.4311 -0.0905 0.17519 -0.1136 0.02608 -0.0266 0.14120 0.21348 -0.2345 -0.1324 -0.0581 -0.0485 -0.1691 0.20501 0.16120 0.17457 0.01703 0.03883 -0.0964 0.01849 -0.1305 0.12165 -0.0347 0.10182 -0.1809 0.01252 -0.1195 0.28266 0.15472 0.23280 -0.0537 -0.0283 -0.1535 -0.1819 -0.0438 0.19052 0.14401 -0.1249 0.05014 -0.1456 0.16824 -0.0509 0.51828 -0.2670 -0.5523 0.03596 0.36202 -0.2424 0.20608 -0.2032 0.53491 -0.0323 0.41558 -0.0778 -0.1983 0.28665 -0.0803 0.35708 0.65167 -0.1707 -0.9632 -0.0071 -0.1062 0.03715 -0.3402 0.53031 0.40241 0.01000 -0.4047 0.64444 0.93196 -0.0780 0.04720 0.13632
贝叶斯 -0.3809 -0.3820 0.04209 -0.3487 0.17852 -0.0175 0.04796 -0.0244 0.17059 0.13723 -0.1056 0.26849 -0.1924 -0.1155 0.06061 0.30759 0.28263 0.45627 -0.2676 -0.3282 0.27907 0.37184 -0.2968 -0.1041 -0.0831 -0.0284 -0.4544 0.20065 -0.2640 0.16848 -0.3445 -0.0649 0.08358 0.10454 -0.4369 0.07911 0.11181 -0.0037 0.06844 0.02448 0.30573 0.04412 -0.0749 0.35704 0.02208 -0.0699 -0.1895 -0.1319 -0.5364 -0.0298 0.19818 -0.1278 0.03861 -0.2131 0.04833 0.00157 -0.2474 -0.1739 0.74567 0.09250 -0.0028 -0.2514 0.19954 -0.0031 0.13602 -0.1225 -0.1044 0.01470 0.04743 -0.1820 0.11428 -0.0501 -0.0885 0.22503 0.00568 -0.2390 0.20781 0.05986 -0.2429 0.05767 -0.2839 0.36139 -0.3879 -0.0130 -0.1513 -0.0427 0.01069 0.16198 0.01895 0.27726 0.04943 0.03410 -0.0046 0.06206 0.14622 0.11928 0.27044 0.20513 -0.1428 0.23646 0.01630 0.21596 -0.0764 -0.2289 0.01526 -0.1014 0.20886 0.01449 0.04933 0.05470 -0.1986 0.01354 0.04535 -0.0351 0.07514 0.11915 0.13942 -0.1367 0.09335 0.04222 0.00262 -0.0848 -0.1759 0.19750 -0.1499 0.09262 -0.1828 -0.1394 -0.0658 0.02341 -0.1567 -0.0768 0.03207 0.04522 -0.0765 0.06951 0.11830 0.13519 -0.0532 -0.2539 0.08011 0.12183 0.10985 0.11086 0.06196 0.07339 0.00948 -0.0255 -0.3028 -0.0205 0.05337 -0.1187 0.00324 -0.0146 -0.0878 -0.2227 0.22832 0.34147 0.08891 -0.0862 -0.1205 0.11224 0.01597 0.16354 0.20608 -0.1611 -0.0188 -0.4615 -0.3130 4.22436 -0.1952 -0.0151 0.01047 0.10061 -0.2611 0.14663 -0.1990 0.07509 -0.0258 0.17875 -0.0827 0.10465 0.16233 -0.0173 -0.0590 0.38642 -0.0596 -0.4897 -0.2353 -0.2948 0.12302 -0.4088 0.05309 -0.1715 0.00493 -0.0017 0.28112 0.36691 -0.0018 -0.0773 0.06437 -0.0693 -0.4354 0.54219 -0.1479 -0.2269 0.03301 0.08612 0.42562 0.21418 -0.1223 0.04476 -0.0690 -0.0016 -0.4193 -0.2424 -0.2255 -0.3946 -0.4393 -0.0368 -0.1467 -0.1511 0.07486 0.00733 0.14271 -0.1630 -0.4364 -0.1573 0.19700 -0.2743 -0.2329 -0.0508 -0.1365 0.20744 -0.0669 -0.0444 0.02692 -0.1448 -0.1733 -0.0038 0.28139 -0.0379 -0.1664 -0.0282 0.18310 -0.0531 0.08259 -0.0350 -0.1744 0.09273 -0.3308 0.02130 0.14302 0.08520 -0.0043 0.03430 -0.1764 -0.0183 -0.4817 -0.1868 -0.2697 0.05957 0.36074 0.04604 0.69016 -0.1420 0.17819 0.27731 0.47217 -0.2719 -0.4434 0.09657 0.32756 -0.2747 0.26304 0.27729 0.59969 -0.2556 0.00852 -0.2421 -0.0933 -0.0483 -0.2129 0.63455 0.54247 -0.0888 -1.0165 -0.2453 0.12133 -0.3914 -0.3279 0.53598 0.35462 0.14959 -0.5075 0.61169 0.80189 -0.0270 0.00084 -0.0872
李冰石像 -0.2709 -0.3783 0.07638 -0.0108 0.14325 -0.2669 -0.3339 -0.0275 -0.0563 0.09851 0.11896 0.13221 0.23229 -0.1167 0.13254 0.03960 0.12940 -0.3783 0.02797 0.00770 -0.0255 -0.0254 0.03251 0.01629 -0.5740 0.05122 -0.5044 0.18266 -0.0722 0.19327 -0.3743 -0.2090 0.08540 0.07091 0.03029 0.01764 0.01701 -0.0967 0.00327 0.12485 0.05943 -0.1672 -0.0242 0.25010 0.10712 -0.0201 -0.0707 -0.0101 -0.2429 0.11904 0.06119 0.02086 0.19134 -0.0410 -0.0627 -0.0219 -0.2292 0.05826 0.29369 0.00575 -0.0374 0.10665 -0.0087 0.33270 0.15875 -0.1710 -0.1146 -0.0291 -0.1226 -0.2691 -0.2148 -0.0330 -0.2577 0.11493 -0.0135 0.13794 -0.0182 0.06574 -0.0918 -0.0036 -0.1316 0.15416 -0.2705 0.10784 0.12756 -0.1087 -0.0677 -0.0493 0.26618 0.07496 -0.1515 0.04958 0.00990 0.10627 0.10613 0.03133 0.16071 0.11023 -0.0088 0.20653 0.38108 0.07332 0.03363 -0.3941 -0.0181 0.08258 0.10771 -0.0060 -0.1040 0.23960 0.19058 0.07096 -0.2387 -0.0658 0.00665 -0.1891 -0.1522 -0.0556 0.03222 0.21356 -0.2994 -0.1212 -0.0421 -0.2044 -0.2344 0.25518 0.05786 -0.1303 0.13484 -0.0481 -0.1149 0.31143 -0.0283 -0.1329 0.23629 0.08219 -0.0416 -0.0779 0.01860 0.06404 0.07819 0.05088 -0.1628 0.14430 0.06688 0.15369 -0.1336 -0.1074 -0.0592 -0.1392 0.05279 0.03649 -0.0854 0.04051 0.08181 -0.0361 -0.1728 -0.0356 0.13045 0.10864 -0.0335 0.04473 -0.0140 -0.1049 -0.0428 -0.0977 -0.0319 -0.2588 -0.1650 0.28618 -0.1073 0.09183 -0.1625 0.10481 -0.0691 0.07383 0.03948 -0.1047 -0.1377 -0.0249 0.19367 -0.1956 -0.0088 -0.1580 -0.2239 0.09105 -0.1608 -0.0695 -0.1782 -0.0578 -0.1090 -0.0654 0.12189 0.09788 -0.0053 -0.2520 0.20531 -0.0720 -0.0614 -0.1661 0.04507 -0.2068 -0.7188 0.34374 -0.0674 0.03420 0.08433 0.27911 0.33412 0.17153 -0.0606 -0.0102 0.26417 0.06507 -0.2613 -0.2304 -0.2028 -0.1287 -0.1908 -0.0232 -0.2378 0.26201 0.02194 0.46137 0.36596 -0.1068 -0.4078 -0.1212 0.22113 -0.2217 0.01903 -0.0648 -0.0722 0.18715 -0.2024 -0.0127 -0.2065 -0.1335 -0.2512 -0.0239 0.06031 0.18919 -0.1539 0.37271 -0.0092 0.10687 0.21845 0.19261 -0.1072 -0.1720 0.01384 -0.1254 -0.1384 -0.2112 0.24384 -0.0012 0.09763 0.07110 -0.2966 0.01920 -0.0445 0.26365 0.24856 0.32151 0.13454 -0.1971 0.52127 0.37129 0.27284 -0.3149 -0.4422 0.16254 0.26674 -0.1808 0.35243 -0.0507 0.46290 -0.1581 0.19282 -0.0564 -0.4715 -0.0091 -0.1774 0.07378 0.43713 0.07190 -0.7845 -0.0349 0.01188 -0.1616 -0.1814 0.55478 0.46641 0.28852 -0.4916 0.41658 0.49093 -0.1336 -0.0652 0.19403
龙头 -0.2148 -0.4997 -0.1391 -0.3814 -0.1629 0.18350 0.20956 0.24387 -0.0989 -0.4141 -0.1415 -0.1033 0.15087 -0.2581 -0.0166 0.50099 -0.2574 0.46427 0.12497 0.14671 0.03670 0.05123 -0.0656 -0.1526 -0.5640 -0.0773 -0.4928 0.00577 -0.1912 0.40130 -0.1996 0.04704 0.21567 -0.0697 0.08269 0.10905 0.05652 0.08965 -0.1763 -0.0827 0.38038 0.03095 0.01012 0.00577 -0.0212 -0.2376 0.05552 0.09232 -0.1681 -0.1884 -0.0743 -0.1911 -0.1924 -0.1002 0.11742 -0.3163 -0.1760 -0.5729 0.61773 0.43214 -0.4593 0.05722 0.05400 -0.0946 0.15562 0.10462 0.14629 -0.0365 0.11340 -0.3190 -0.0165 0.17351 0.30090 0.10047 0.06278 -0.0111 0.10127 -0.1187 -0.0599 0.07800 -0.3090 0.26142 0.21431 0.13487 -0.0296 -0.1234 0.38604 -0.1522 0.38841 -0.0074 -0.3537 0.01671 -0.0530 0.25628 0.12352 0.39021 0.03701 0.03972 0.19050 -0.0390 0.15340 0.06678 -0.0560 -0.4647 -0.0009 -0.3146 0.22234 -0.0633 0.13895 0.16348 -0.4014 0.08824 0.82116 -0.4843 -0.6299 -0.1415 -0.1954 -0.0635 0.28553 -0.3212 0.05626 0.24707 -0.3636 -0.3300 -0.0309 0.23401 0.05295 0.14136 -0.0876 0.03656 0.25676 -0.1526 0.21116 -0.0900 -0.0304 -0.0605 0.28234 -0.2364 -0.1508 -0.1769 -0.0224 0.06679 -0.1329 0.26767 0.22071 -0.0106 0.03347 0.06559 -0.3181 -0.0658 -0.0046 -0.3903 -0.0524 0.23325 0.02919 -0.3803 -0.0325 0.06332 -0.0178 0.01551 -0.2024 0.17277 -0.0953 0.40323 -0.2726 -0.1351 0.04607 -0.1512 -0.0987 -0.0052 -0.0857 0.07874 0.17792 0.02125 -0.5060 -0.3540 0.24034 0.11456 0.03335 0.07562 -0.3751 -0.3308 0.39754 -0.0015 -0.5935 0.09920 -0.1270 -0.3459 0.08287 -0.1559 0.21332 -0.3919 -0.4089 -0.0874 -0.0585 -0.4060 0.53489 -0.0312 0.04169 -0.3797 0.56157 -0.0839 -0.6033 0.16085 -0.3859 -0.2484 -0.1191 -0.1017 0.74921 0.16213 -0.3181 0.18453 0.50585 -0.1709 -0.7258 -0.1413 -0.2437 -0.0363 -0.4389 0.42859 -0.0722 0.52430 -0.3166 0.77944 0.23776 0.08965 -0.6266 -0.2751 0.47101 0.14044 0.11803 -0.1669 -0.1825 -0.2774 -0.3430 0.34795 -0.2284 -0.0812 0.15301 -0.0650 -0.0580 0.23543 -0.1659 0.12568 0.21083 0.29876 0.09512 -0.0344 -0.5190 -0.2204 -0.0915 0.03116 -0.4675 0.57531 0.23880 -0.1444 0.09504 -0.0147 -0.7425 -0.0421 -0.0100 0.17916 0.40415 -0.5060 0.14209 -0.0392 0.40316 -0.3923 0.93377 0.11393 -0.4461 -0.0807 0.55548 -0.3654 -0.0029 0.02135 0.73796 -0.1060 0.71748 -0.0210 -1.0509 0.55106 -0.3847 0.74416 0.98896 -0.2651 -1.2929 0.26653 -0.3393 0.08556 -0.3410 0.68624 0.65968 0.21072 -0.6376 1.02456 0.79808 -0.2200 -0.4358 0.57790
旋涡泵 -0.0311 -0.2080 -0.0406 0.02626 -0.2399 -0.1320 0.14410 0.10375 0.11176 0.21720 0.03416 0.35103 -0.2001 -0.0170 0.10285 0.18877 0.01873 0.52776 -0.1117 0.06052 -0.0831 0.17466 0.02867 0.07606 -0.6353 0.05686 -0.3731 0.25096 -0.2033 0.09809 -0.3419 -0.0443 0.06467 0.04579 -0.1335 0.07529 0.15513 0.31792 -0.2165 -0.3806 -0.0258 -0.3339 0.09914 0.21267 0.05720 -0.1868 -0.2041 -0.0156 0.07954 0.15578 -0.0830 -0.2379 0.00446 -0.0054 -0.0885 0.27195 -0.2523 -0.0475 0.27684 0.02324 -0.2550 -0.0366 0.00046 -0.0997 -0.0520 0.13249 -0.0599 -0.1561 -0.0816 -0.2838 -0.0078 0.07826 0.03526 0.15257 -0.1618 -0.3330 -0.1392 0.34396 -0.3067 -0.0421 0.26762 0.07421 0.21329 -0.0643 0.18922 -0.0419 0.29085 -0.2266 0.36754 0.32717 0.02473 -0.1798 -0.0290 0.12599 -0.0245 0.07092 0.02696 -0.3422 0.15899 0.16608 0.01637 -0.0569 -0.1861 0.46568 -0.0470 -0.1970 0.35506 -0.0894 0.11380 -0.1920 0.14701 0.07092 -0.1674 -0.0928 -0.0290 0.31847 -0.1732 -0.1426 -0.0742 -0.0061 -0.1097 0.17055 0.03799 0.05586 -0.0977 0.13592 -0.1349 -0.4030 0.25886 -0.0717 -0.1591 0.22824 0.22577 -0.1146 0.06341 -0.2338 -0.3189 0.12068 -0.0520 -0.2811 0.08402 0.08103 0.37287 -0.0023 -0.0187 -0.1706 0.16753 0.01252 -0.4213 0.12028 0.08273 -0.1033 -0.1089 0.09088 -0.2710 0.08580 0.38731 0.49809 -0.1822 -0.1699 -0.2763 0.18100 0.13110 0.51054 -0.4189 -0.3227 0.06513 -0.3875 -0.1134 -0.1849 -0.1799 -0.1558 -0.1412 0.14507 -0.2058 0.05353 0.24884 -0.0584 -0.0942 -0.5693 -0.1799 -0.1655 0.17511 -0.2500 -0.1686 0.28511 -0.3561 -0.4827 -0.2310 -0.1621 -0.1468 -0.2649 -0.0006 -0.0224 -0.2225 -0.1391 0.20580 0.17360 0.01837 -0.3353 0.09427 0.11465 -0.6765 0.45645 -0.1626 -0.3038 -0.0222 0.30156 0.44911 0.17787 -0.0372 -0.0887 -0.0788 0.00546 -0.0737 -0.0958 -0.2937 -0.2820 -0.1538 -0.0189 -0.2955 0.02707 0.04841 0.32328 0.48686 -0.5070 -0.3559 -0.4022 -0.0629 -0.3093 0.06183 -0.1032 0.18040 0.15823 -0.4161 -0.1153 -0.2258 -0.0159 -0.2838 0.13118 0.07631 -0.2802 -0.2131 0.36655 0.01477 0.15309 -0.1341 0.22156 0.14473 0.05592 -0.4494 0.44038 0.05853 0.14736 -0.1337 -0.0984 -0.1552 0.11020 -0.0908 -0.0596 0.05151 -0.1362 -0.0548 0.27021 0.60064 0.26709 0.21808 -0.0083 0.23898 -0.4283 -0.7798 0.05811 0.39216 -0.2906 0.28142 -0.0803 0.38600 0.26947 0.12798 -0.0215 -0.5674 -0.1472 -0.3128 0.19999 -0.0162 -0.3080 -0.7757 0.23008 0.05333 -0.3089 -0.2755 -0.2234 0.36803 -0.0477 -0.2387 0.58123 0.45726 -0.3172 0.12727 0.30163
丁加 -0.1278 -0.1678 -0.1710 -0.1030 -0.0119 -0.0271 -0.0330 0.04491 -0.1331 0.23999 0.22641 0.09982 0.14959 0.00034 0.00106 0.21094 0.07218 0.18053 -0.1948 0.01733 -0.0069 0.14094 -0.0616 -0.0378 -0.4923 0.24266 -0.3460 0.09448 -0.1808 0.34629 -0.3548 0.05447 -0.0133 0.17545 -0.0875 0.00586 -0.2001 -0.2199 0.11080 -0.1485 -0.1741 -0.2269 0.02877 0.23807 -0.1421 0.12517 -0.2372 0.03652 -0.3590 -0.0295 -0.2010 -0.0850 0.11067 0.04749 0.10118 0.02669 -0.4324 -0.0592 0.26347 0.05818 0.12438 -0.1013 -0.0165 0.01072 0.06514 0.03112 -0.0854 -0.0093 -0.1462 -0.3670 -0.2615 -0.2226 -0.1303 0.00854 -0.1395 -0.4406 0.28033 0.21594 -0.1258 -0.0126 0.14566 -0.0532 -0.0643 0.19895 0.11449 0.06484 0.42140 -0.2163 0.12191 -0.0080 0.14196 0.33322 -0.3694 -0.0301 0.01782 -0.1084 0.50997 0.42305 -0.0681 -0.0122 0.38837 0.09062 -0.0834 -0.3312 0.12491 0.46396 0.08292 0.14446 -0.0440 0.27610 0.01190 0.08708 -0.3715 0.12783 0.12536 0.34035 -0.2326 -0.0354 0.03094 0.20048 0.02872 -0.0832 0.23967 0.00082 0.10392 -0.1950 -0.0894 -0.1642 0.02562 -0.1858 -0.2263 0.21289 0.04219 -0.2663 0.07374 -0.0090 0.06425 -0.0991 0.04040 -0.2690 0.12962 -0.0533 0.15053 0.14511 0.15168 0.01432 -0.0212 -0.0154 -0.0128 -0.4641 0.20150 -0.1364 0.01215 -0.0463 -0.0787 0.07549 -0.2696 -0.1077 0.12454 0.02988 0.05238 0.06546 -0.2831 -0.1167 0.33283 -0.2030 -0.1063 -0.1754 -0.2560 0.18367 -0.3428 0.29162 -0.2199 0.05366 -0.2801 0.05165 0.02796 -0.2217 0.10393 0.02966 -0.1376 0.07588 0.47778 -0.2196 -0.1114 0.46595 0.07512 -0.4716 -0.0911 -0.2372 -0.0322 -0.2800 0.04544 0.00343 0.02948 -0.5553 0.08671 0.02797 -0.1043 0.11259 0.09053 0.20088 -0.6158 0.55829 -0.1714 -0.0649 0.12253 0.15453 0.48551 -0.0408 -0.1257 0.00206 -0.0475 0.09796 -0.1971 -0.0143 -0.1670 -0.4013 -0.0395 0.07700 -0.2571 -0.1222 0.12620 0.40343 0.17983 -0.3530 -0.3039 -0.0297 0.26849 -0.5555 0.03416 -0.2845 -0.3904 0.02227 -0.0415 -0.0682 0.01647 0.20640 -0.3787 -0.1388 0.01568 -0.2396 -0.1824 0.62563 0.05767 0.07022 0.51688 0.04442 -0.1533 -0.2263 -0.2194 0.06942 0.03110 -0.0093 -0.0827 0.18808 -0.0584 0.36379 -0.1193 0.10093 0.02930 -0.1791 0.45938 0.40356 0.64506 -0.0207 0.53429 0.24989 0.35632 -0.3697 -0.4884 -0.0402 0.46260 -0.0640 0.29049 0.03106 0.56485 -0.1570 0.19252 0.15454 -0.9273 -0.3152 -0.0115 0.63017 0.75880 -0.2983 -1.1916 -0.1726 0.21573 -0.4782 -0.1830 0.89375 0.81867 0.40089 -0.6096 0.57843 0.63703 0.07839 0.06650 0.41534
保滩 -0.1313 -0.2143 -0.1859 -0.2497 0.12971 0.12872 -0.1446 0.08303 -0.1138 -0.0920 0.11972 -0.1111 0.14397 -0.0158 0.03782 0.51419 0.01836 0.58701 0.10004 -0.0184 0.06337 0.31087 -0.1857 -0.2160 -0.3308 -0.0502 -0.4545 0.02173 0.02798 0.27738 -0.1808 -0.3194 0.10472 0.02474 -0.0124 -0.0935 -0.0030 -0.1273 0.03158 -0.2427 -0.2661 -0.0988 -0.0295 0.10230 -0.0727 0.17699 -0.0768 -0.0291 -0.1138 0.20985 -0.0443 -0.1197 0.08839 -0.0269 0.00998 -0.0586 -0.4142 -0.0339 0.35216 0.07213 -0.0536 0.03352 -0.0864 -0.0919 0.03657 0.11866 -0.1769 0.01901 -0.3922 -0.4381 -0.0020 -0.0137 -0.1153 0.31283 -0.1752 -0.2620 0.25191 0.19229 -0.1480 -0.0583 0.07131 0.26823 -0.0721 0.27129 0.20748 -0.3023 0.00509 -0.1305 0.32797 0.12328 -0.0405 0.07630 -0.0173 0.11067 0.26588 0.27088 0.03688 0.22187 -0.1096 -0.0530 0.37948 0.20397 0.17909 -0.2130 0.15939 0.28145 0.15245 0.00628 0.03716 0.17351 0.05502 0.08023 0.09137 -0.2522 0.17612 0.18149 -0.1615 -0.0946 0.32158 -0.1311 0.02356 0.05017 -0.1191 -0.0335 -0.0372 -0.0051 -0.2480 -0.0429 0.15795 -0.0076 -0.1325 0.18016 0.29862 -0.1149 0.16368 -0.2253 0.03629 0.06414 -0.0131 -0.2795 -0.1017 -0.1297 -0.1310 0.21459 0.07178 -0.2514 0.08957 -0.0335 -0.2937 -0.0505 0.33550 -0.1399 0.16091 0.32180 -0.0163 0.11896 0.14930 -0.0764 0.09055 0.02557 -0.0817 0.32506 -0.1564 -0.0268 0.11865 0.05586 -0.1455 -0.2650 -0.3310 0.44768 0.02176 0.23660 -0.2665 0.08295 -0.4718 -0.0316 0.01930 -0.0194 -0.1584 -0.1437 -0.5392 -0.1169 0.35589 -0.3644 -0.4918 0.49968 -0.1234 -0.5527 -0.0937 -0.0986 -0.1562 -0.5196 -0.1370 -0.0494 0.03551 -0.4188 0.18996 0.04681 0.06733 -0.1787 -0.0266 0.09220 -0.5779 0.32312 -0.2089 -0.3472 -0.1869 0.40324 0.50405 0.10311 0.05424 -0.1265 0.21907 0.17496 -0.5078 -0.1326 -0.3554 -0.3787 -0.3069 -0.0635 0.14217 0.25382 -0.1685 0.71688 0.04955 -0.1741 -0.4884 -0.0239 0.37636 -0.3397 -0.1459 -0.2294 -0.2129 0.08637 -0.0728 -0.1471 -0.1134 -0.2300 -0.4039 0.15872 -0.0440 0.08710 -0.2518 0.51177 0.16696 0.18542 0.23084 0.05088 -0.2074 -0.3563 -0.1716 -0.1698 0.13737 0.16003 0.18816 -0.1669 -0.1879 0.24988 -0.4581 0.13459 -0.2561 0.17131 0.33654 0.35633 0.56920 -0.3474 0.63180 0.25992 0.80050 -0.1517 -0.3360 0.12292 0.52243 -0.2127 0.15838 0.38081 0.83896 -0.0540 0.24681 0.27851 -0.8849 0.01938 -0.1955 0.82792 1.30163 -0.5236 -1.0923 0.02316 0.12110 -0.1569 -0.1030 0.63150 0.96675 0.04402 -0.4974 0.62843 0.67326 -0.1123 0.03385 0.35789
保管费 0.12855 -0.3407 -0.2766 -0.1256 -0.0955 0.13332 -0.2252 0.15852 -0.1677 0.05568 0.06795 -0.2233 0.44325 0.02296 0.18099 0.46135 0.02209 0.12828 0.03350 -0.0099 0.23794 0.18099 -0.4509 -0.1912 -0.0256 0.23716 -0.0732 0.06560 0.14713 0.15508 0.10444 -0.0965 0.26170 0.36844 -0.2193 0.05907 -0.0079 0.02554 -0.2410 -0.1022 -0.0381 -0.2235 -0.0645 0.00085 0.04373 0.06172 -0.0442 0.13167 0.03209 0.08905 0.26552 -0.2609 0.12151 0.14440 0.15746 -0.1177 -0.5160 -0.1179 0.69232 0.02583 0.14344 0.44421 -0.0287 -0.2986 -0.1020 -0.1076 -0.1401 -0.1220 -0.2600 -0.2450 -0.0851 -0.1405 -0.2022 0.29246 -0.1147 -0.1967 -0.0907 -0.0131 -0.1973 -0.2918 0.24331 0.30975 0.12063 0.30232 0.05343 -0.2932 -0.0797 -0.2395 0.06443 0.03648 -0.0115 0.23030 0.08761 0.16125 0.00573 0.08907 0.04378 -0.1505 -0.1677 -0.0614 0.53758 0.00956 0.03986 -0.1613 0.04235 0.24195 0.29238 0.06908 -0.0533 0.25626 0.05645 0.02242 -0.0833 0.08123 0.05498 0.01655 -0.3188 0.17466 0.19970 0.21061 0.05649 -0.0180 0.07241 0.10401 0.05503 -0.0328 -0.1175 -0.2186 0.11249 0.17070 -0.0723 0.01376 0.36144 -0.0373 0.10438 -0.0794 0.04220 0.23708 -0.0003 -0.2715 -0.1194 -0.1223 0.02288 0.12325 0.17161 -0.0782 -0.1974 0.07347 -0.4738 -0.2481 -0.1357 -0.3222 0.04986 0.07252 0.26871 -0.0724 -0.0182 -0.0966 0.12826 0.11013 -0.1897 0.11599 -0.2241 -0.2395 -0.0094 0.03130 -0.1276 -0.0716 -0.1421 0.15053 0.08508 0.06576 0.03878 -0.1068 -0.1603 0.07106 0.03690 -0.1199 -0.2888 -0.2392 -0.3874 0.08630 0.28984 -0.3579 -0.2601 0.38916 -0.0619 -0.4041 -0.0947 -0.3563 0.02928 -0.2074 -0.1680 -0.0209 -0.0664 -0.4641 0.62696 -0.0634 0.18972 -0.2067 -0.2021 0.12298 -0.2170 0.19889 -0.0786 -0.2616 0.11170 0.29533 0.38747 0.04430 -0.3424 -0.1590 0.15192 0.27974 -0.5495 -0.3583 -0.2991 -0.3802 -0.4286 -0.0248 0.07922 0.29070 0.06500 0.40394 -0.0026 -0.1625 -0.4799 0.00661 0.21077 -0.4524 -0.0828 -0.1901 -0.0442 0.08548 -0.1483 -0.0592 -0.0127 -0.2632 -0.1667 0.31030 -0.1561 -0.0330 -0.1704 0.25356 -0.2080 0.49232 -0.1497 -0.2922 0.25300 0.39888 -0.3893 0.13037 -0.0904 -0.0087 0.22412 -0.3864 0.05474 -0.2649 -0.2587 -0.0186 -0.0247 0.03093 0.16051 0.31993 0.71961 -0.1088 0.25718 0.05951 0.03203 -0.1956 -0.6006 0.18134 0.33985 -0.2537 0.26953 0.03941 0.71264 0.05782 0.36983 0.02428 -0.4677 -0.0685 -0.3454 0.45073 0.60690 -0.5130 -0.8374 -0.2281 0.03205 -0.2028 -0.0836 0.38335 0.46697 -0.2180 -0.1591 0.66946 0.78562 0.03785 0.24425 0.23995
庄民 0.13563 -0.0991 0.17303 -0.3448 0.20491 0.10569 0.10501 0.22490 0.13567 -0.2411 0.40436 -0.0936 0.18690 0.20306 0.03526 0.53345 -0.2586 -0.0158 0.12774 0.20123 0.48872 0.11390 -0.1160 -0.0520 0.03597 -0.0645 -0.2653 0.13091 -0.1473 0.12619 -0.1331 0.11228 0.29334 -0.0904 0.01700 -0.0593 -0.0070 0.09851 -0.0133 -0.1122 -0.1996 -0.0354 -0.2146 0.18213 -0.0017 0.22206 -0.2838 -0.0260 -0.0608 0.21328 -0.1691 -0.1891 -0.0149 0.31103 -0.0719 0.01441 -0.4431 -0.0150 0.58683 0.00390 -0.0929 -0.0379 0.00744 -0.1234 -0.0886 0.48370 -0.0340 -0.1342 -0.5835 -0.1009 -0.0170 -0.1632 -0.2667 -0.0274 0.49786 -0.0179 0.07084 0.23761 0.13256 -0.0542 -0.0397 0.00107 -0.1852 0.31498 0.28583 -0.1478 0.25342 -0.0893 0.18636 0.15739 0.06386 -0.1538 -0.1456 0.06058 0.43253 0.12566 0.11826 0.20921 -0.2080 0.17748 0.23659 0.19133 -0.1974 -0.2877 -0.1688 0.21697 0.03657 -0.0482 -0.0045 -0.1149 0.02190 0.20075 -0.1074 0.12030 0.04865 -0.4309 -0.3327 0.08938 0.04654 0.20375 -0.0470 0.06852 -0.3260 0.02611 0.08525 -0.1342 0.23059 0.00248 -0.0277 -0.0869 -0.1695 0.14426 0.11822 -0.4381 0.04895 -0.2317 0.06062 0.04350 0.00782 0.49198 -0.2187 -0.0578 -0.3570 0.11825 -0.0338 0.01177 0.01784 -0.1247 -0.2052 -0.1431 0.18250 -0.1396 0.17371 -0.1226 0.21952 -0.0272 -0.9552 -0.4160 0.55738 0.25226 -0.0015 -0.1066 -0.5121 -0.3135 -0.1701 0.28353 -0.1457 -0.0504 -0.3974 0.65537 -0.1457 0.12692 0.10778 0.21083 -0.3082 0.03012 0.24937 0.03670 0.02725 -0.1330 -0.0746 -0.1447 0.54345 -0.1304 -0.1008 0.03997 0.19925 -0.2129 -0.1663 -0.0197 -0.1349 -0.0318 0.06489 -0.0198 -0.0054 -0.2094 0.10090 -0.1358 -0.1831 0.06675 0.11476 0.09612 -0.4403 0.27808 -0.3938 -0.0133 0.27715 0.43042 0.44629 -0.0429 0.03926 -0.0022 0.09215 -0.0267 -0.4751 0.11385 -0.1462 -0.3419 -0.3081 0.05037 -0.0580 0.77122 -0.0216 0.80353 0.00669 -0.0645 -0.3773 -0.1393 0.01487 -0.4758 0.15996 -0.0946 -0.1549 -0.3594 0.00704 0.30157 -0.0833 -0.1769 -0.2162 -0.0019 0.04841 -0.1861 -0.1446 0.59235 0.17653 -0.2585 0.69297 0.61774 -0.3166 -0.2186 0.23605 -0.2713 -0.2124 -0.0318 0.29095 -0.1486 0.03288 0.23993 -0.4379 0.12141 -0.2249 0.43993 0.41211 0.21136 0.12453 -0.3383 0.85896 0.67006 0.32165 -0.2754 -0.3594 -0.1586 0.68054 -0.7946 0.43174 -0.1813 0.21709 -0.1808 0.58339 0.35404 -0.5822 -0.0376 -0.0789 0.52528 1.13163 -0.6334 -1.5516 -0.3927 -0.5366 0.06562 0.04864 0.46860 1.01145 0.04851 -0.7815 0.74924 0.28912 0.12436 -0.0575 0.11233
synthesis -0.4784 -0.4211 0.09282 -0.7359 0.11116 -0.1342 0.00907 0.23711 0.37358 -0.2660 -0.2118 0.52152 0.21409 -0.3810 0.16424 0.56104 0.03067 0.34324 -0.1966 0.38265 0.06141 -0.3811 -0.3276 0.20302 -0.7229 0.08068 0.11144 0.47808 -0.0376 0.40285 -0.3977 -0.2762 -0.0118 0.17830 -0.2620 -0.2837 -0.3147 0.06213 -0.1879 0.54828 0.11279 -0.3005 0.42927 0.18215 -0.2184 0.36267 -0.2066 -0.1034 -0.5350 0.02694 -0.0333 -0.2609 0.19140 -0.2587 -0.2577 0.16043 -0.0129 0.27225 -0.1378 -0.2405 0.14091 -0.0452 0.37703 0.18740 0.31978 0.07755 0.08711 -0.0099 -0.3582 -0.0264 -0.2392 0.13488 0.41144 -0.0743 0.24060 -0.1417 0.37728 0.32852 0.01383 0.20110 -0.1740 0.28342 -0.2875 -0.5865 -0.6288 -0.2098 0.41963 -0.1818 -0.0333 0.10423 0.47111 0.17099 0.33442 0.58683 0.26833 0.09790 0.39295 -0.0916 0.18460 0.13110 -0.2503 -0.3113 -0.3336 0.25066 -0.3747 -0.0954 -0.3111 -0.2944 -0.1246 -0.2208 -0.3943 0.11925 0.26287 0.31192 -0.1686 0.37208 0.61091 0.44514 -0.3352 0.25262 -0.6776 -0.4110 0.23048 0.14943 -0.2181 0.20059 -0.4009 -0.3895 -0.0925 0.19872 0.00359 -0.0578 -0.1915 0.51461 -0.2423 0.11708 -0.1242 0.02600 -0.2553 -0.2778 0.24258 -0.2362 0.21011 -0.3630 0.16484 0.32372 0.14336 0.28087 0.14229 0.32116 -0.1735 -0.4308 -0.1791 0.32967 -0.0711 0.12119 -0.0732 0.22381 -0.1319 -0.1848 -0.0799 -0.0166 0.80123 0.08618 -0.5341 -0.3609 0.02828 0.13013 0.54232 -0.3212 -0.0325 -0.4910 0.07692 -0.4803 0.35273 -0.0659 -0.1284 -0.2598 0.14746 0.28371 1.03069 -0.2541 0.15943 0.51718 0.49974 0.15079 0.08029 0.47564 0.15544 0.12592 0.28762 -0.0804 0.51038 -0.1496 0.57147 0.22920 -0.4590 0.20303 0.02851 0.37075 -0.2595 0.03166 0.66679 -0.2311 0.34584 -0.3412 0.37953 -0.1823 0.00606 -0.1518 -0.0438 -0.4054 -0.1379 -0.3160 0.31423 -0.5920 0.81779 -0.1052 0.15127 0.56710 -0.4492 -0.2402 0.73698 -0.3948 -0.0898 0.22127 -0.1270 -0.0692 -0.1711 0.00350 0.16244 0.20136 0.13162 -0.4849 -0.0036 0.08620 0.20522 0.79603 0.19479 -0.0855 0.11237 -0.0853 -0.0365 -0.6224 -0.0064 0.16820 0.10667 -0.0284 0.77358 0.86667 0.06245 0.27293 -0.3676 0.41158 -0.2524 -0.0353 -0.1082 -0.1298 0.10303 -0.0974 0.12424 -0.7141 0.53458 0.16597 0.19400 -0.0016 -0.2736 0.68895 -0.2479 -0.1943 -0.9819 0.14747 -0.2481 -0.3146 0.11524 -0.3800 0.18482 -0.0518 0.12489 -0.0422 0.58774 0.24059 -0.0487 -0.5560 -0.7431 0.16159 -0.1120 0.08094 -0.7619 0.39368 -0.5436 0.02312 0.18993 -0.2850 0.00211 -0.4266 -0.1317 0.46824 0.46178 0.41171
Oral -0.4300 -0.4457 -0.0857 -0.3104 0.16827 -0.5620 -0.2048 0.10482 0.22792 0.21431 0.06202 0.27155 0.18804 -0.0090 -0.1656 0.23654 0.17133 0.24252 -0.0796 -0.1950 0.32161 0.46846 -0.2353 -0.0513 -0.6232 -0.1724 -0.2985 0.16637 0.03579 0.09668 -0.5037 -0.0730 0.10892 -0.0881 -0.0712 0.00429 -0.1905 -0.0393 -0.1391 0.03463 -0.0300 -0.1480 0.19458 0.18124 0.23318 -0.2015 -0.1908 -0.0264 -0.1839 -0.0104 0.16155 0.04606 0.13995 -0.0240 -0.0482 -0.0320 0.13006 0.14674 0.12103 -0.2458 0.10685 0.01541 0.20182 0.12574 0.24224 -0.0063 -0.2260 0.08318 -0.0034 -0.0739 -0.0589 -0.2025 0.02986 -0.0926 0.01884 -0.1472 0.09871 0.01670 -0.1328 -0.0251 0.15171 -0.0191 -0.2748 -0.2031 -0.1346 0.02719 -0.2932 -0.0080 -0.1776 0.15034 0.20511 0.15100 0.10093 0.23076 -0.0452 -0.0423 0.21602 0.12710 0.05367 0.22594 -0.1647 0.07478 -0.0771 0.27043 0.23453 -0.1248 -0.2881 -0.2786 0.06735 -0.0515 -0.1468 0.10511 -0.1335 -0.2156 -0.0099 -0.0824 0.27475 0.18938 -0.1689 -0.1774 -0.1461 -0.2180 0.18365 0.27458 -0.2667 -0.2004 -0.2956 -0.3238 -0.0332 0.17717 0.08075 -0.2449 -0.2614 0.25241 -0.1727 -0.0612 0.01739 0.07683 0.10520 -0.0223 0.07534 -0.0078 -0.2004 -0.1104 -0.2187 0.05435 -0.1248 0.03238 0.11130 0.18370 0.14597 -0.2766 -0.1793 -0.0327 0.06909 -0.0685 0.07869 0.10608 0.15914 -0.2797 -0.2746 0.02355 0.15262 -0.0682 -0.1462 -0.0535 -0.0971 -0.3347 0.02310 0.06707 -0.2691 0.04136 -0.0283 0.03474 -0.0925 -0.0469 -0.2376 0.07304 0.16596 -0.0441 0.16921 0.04392 0.03613 0.23462 0.11698 0.14994 0.09823 -0.0023 0.16673 -0.0234 0.25706 -0.4515 -0.1575 0.10704 0.19594 -0.0319 -0.0951 0.08068 0.23753 -0.2881 0.10722 -0.1035 0.32911 -0.1304 0.14347 -0.0820 0.01752 -0.0808 0.00537 0.10903 -0.0950 0.09843 0.01191 -0.1093 -0.2001 -0.3010 0.08464 -0.2658 0.00666 0.31677 -0.2837 0.01571 0.37834 0.08031 -0.1264 -0.1720 -0.1339 -0.0726 -0.0421 -0.1048 -0.2665 -0.1360 -0.1202 -0.0621 -0.0282 0.00120 -0.3145 0.05960 -0.0725 -0.1446 0.12359 -0.0970 -0.5056 -0.2166 0.15423 0.32716 -0.1432 -0.2190 0.21850 0.22705 -0.1730 0.15048 0.02475 -0.0562 0.09323 -0.0613 -0.2303 -0.0433 -0.0047 -0.1139 -0.2018 -0.2589 0.03938 0.27232 0.35232 -0.0234 0.20204 0.44384 -0.0401 -0.3805 -0.6355 0.11319 0.09933 -0.0390 0.04891 0.18798 0.38667 -0.4435 0.30063 -0.2011 0.08155 -0.1842 -0.1112 -0.0070 0.07519 0.08975 -0.8801 -0.1002 -0.0527 -0.2070 -0.2814 -0.3486 -0.0620 0.26971 -0.0420 -0.1995 0.18623 -0.0504 0.33857 0.36777
象甲科 -0.1827 -0.4026 -0.0296 -0.0082 0.13021 -0.0508 -0.2677 -0.0756 0.07176 -0.0437 0.26238 0.01438 0.15169 -0.2143 -0.0302 0.30423 -0.0829 0.10328 -0.2740 0.08299 -0.0221 0.20716 -0.2233 -0.1312 -0.4320 -0.1838 -0.2886 0.14363 -0.0066 0.12340 -0.4797 0.04526 0.02454 0.02623 0.04240 -0.2565 -0.0008 0.06047 -0.0389 0.03785 0.12501 -0.1544 0.09737 0.21806 -0.1281 -0.1381 0.12069 -0.1398 -0.2844 0.00324 -0.0793 0.02770 0.11091 -0.0819 0.01571 0.06123 -0.0091 0.02424 0.23175 0.12394 0.00070 -0.0299 0.00388 0.03950 0.11174 0.02511 -0.0260 -0.1788 -0.0829 -0.3519 -0.0660 -0.0855 0.03956 -0.0862 0.08228 -0.3263 -0.0102 -0.0813 -0.4647 -0.1840 -0.0761 0.00350 -0.1046 -0.1349 -0.0514 -0.3537 -0.0217 -0.0559 0.22521 0.00595 -0.1347 0.22269 -0.1010 0.17728 0.18503 0.09902 0.17308 0.25933 -0.0098 0.23328 0.31461 -0.0243 -0.0322 -0.1831 -0.1290 0.07522 0.18073 -0.0596 -0.0950 0.11134 -0.0816 -0.0633 -0.2801 0.02173 -0.1806 0.04080 -0.1943 -0.1311 -0.0095 0.21707 -0.2559 -0.1475 0.15836 -0.1604 -0.1247 0.22092 -0.0433 -0.0310 0.09144 -0.0280 0.07526 0.08859 0.10131 0.08549 0.06279 -0.1786 -0.0145 0.02839 -0.0708 0.01174 0.13480 0.03303 -0.0953 0.26436 0.27151 0.19175 -0.1228 -0.0169 0.04630 -0.3624 -0.0889 0.06254 -0.0731 -0.1340 0.13180 -0.2292 -0.1287 0.06940 0.00588 0.07893 -0.0751 -0.0654 -0.1848 -0.0929 0.36024 0.06046 0.25005 -0.1595 0.09370 0.17739 -0.0119 0.09317 -0.1885 0.12444 -0.3020 0.31301 -0.1670 0.06677 0.06841 -0.0362 -0.0399 -0.1358 0.34091 0.02644 -0.2505 0.05735 -0.1568 -0.3044 -0.0963 0.06603 0.17431 -0.2401 0.04389 0.08672 0.04828 -0.5767 -0.0714 0.04617 0.09833 0.05308 0.17098 0.11895 -0.3233 -0.1139 0.01357 -0.0516 -0.1243 0.24875 0.04520 0.07291 -0.0864 0.09832 -0.0879 0.01844 -0.2181 -0.0565 -0.0165 -0.2394 -0.1354 -0.0160 -0.2367 -0.1345 0.20892 0.24604 0.23571 -0.1761 -0.0857 0.00547 0.16469 -0.3104 0.14290 0.05719 0.02920 -0.1387 -0.2603 -0.0969 -0.2446 0.05059 -0.3428 0.08809 -0.1713 0.05645 -0.2875 0.21755 0.18632 0.31736 0.00012 0.23853 0.12531 -0.0208 -0.1255 0.15667 -0.0818 0.05523 0.01281 -0.1045 -0.3731 0.19991 -0.4640 -0.2400 0.02260 0.11403 0.63420 0.26952 0.29034 0.04841 0.36702 0.39940 0.28319 -0.1751 -0.5083 0.30624 0.19719 -0.0432 0.28302 -0.1193 0.40535 -0.0533 0.08740 0.29129 -0.2069 -0.0673 0.10826 0.43312 0.39801 -0.2609 -1.0148 -0.1981 0.05975 -0.0685 -0.3473 0.49966 0.38152 0.22562 -0.3969 0.58376 0.56223 -0.3903 0.14228 0.45873
诺模图 -0.2137 -0.2330 0.14497 -0.1190 0.00117 0.06664 0.02432 -0.0353 0.05382 0.02485 0.10866 0.04351 0.19615 -0.0596 -0.1266 0.18450 -0.0272 0.00174 -0.0098 -0.0806 0.25152 0.21226 -0.2142 -0.0338 -0.1406 0.04918 -0.2990 0.01328 0.02069 0.25892 -0.3954 -0.0312 0.13489 0.02087 -0.1079 0.05010 -0.0634 -0.0990 0.11261 0.25821 -0.0822 -0.1281 -0.0649 0.19718 -0.1801 0.04081 -0.1270 -0.0138 -0.5115 -0.0414 0.15589 -0.0677 -0.0667 -0.3714 0.22043 -0.0627 -0.3467 -0.1959 0.95274 0.05058 0.01084 0.03692 0.22570 -0.1626 -0.0175 0.04929 0.03033 0.06709 -0.0398 -0.0680 0.13567 0.04638 -0.0207 0.23274 -0.0073 -0.1394 0.11332 -0.0413 -0.1102 -0.0008 -0.1203 0.32703 -0.1357 0.20413 -0.0547 0.04499 -0.0800 0.03204 0.03882 0.11310 0.00112 -0.0368 -0.1028 -0.0499 0.07787 0.06444 0.29782 0.00346 -0.0422 0.10506 0.22269 0.08535 0.04300 -0.1777 -0.0891 0.12876 0.10614 -0.0517 -0.1682 0.08170 0.05714 0.18033 -0.1675 -0.0206 -0.1206 -0.1752 -0.0415 0.12883 -0.0199 0.37357 -0.0228 -0.0450 -0.1470 0.12542 -0.1987 0.02839 -0.1063 0.02647 -0.0273 -0.0530 0.10155 -0.1216 0.03930 0.04981 0.24472 0.08166 0.08200 0.13016 -0.1153 -0.1448 0.08481 -0.0476 0.15003 -0.0150 0.17761 0.06531 0.10226 -0.0263 -0.1302 -0.1592 0.18303 -0.0941 -0.0676 0.09854 -0.1554 -0.0484 0.19455 0.17821 0.04389 0.06438 -0.0439 0.02593 0.17593 0.19344 0.11194 -0.0876 0.21458 -0.2349 -0.1231 0.19845 -0.0148 -0.0430 -0.0559 -0.0461 -0.1248 -0.3204 -0.1541 -0.0102 -0.0412 -0.0628 -0.1306 0.02842 -0.0255 0.00038 -0.2042 0.15505 -0.1628 -0.0230 -0.0403 -0.3059 -0.1265 -0.1046 0.08330 -0.0592 -0.0345 -0.3135 0.34737 -0.0029 0.07456 -0.0202 -0.0735 -0.0977 -0.3508 0.40581 -0.0052 -0.3329 0.00970 0.05007 0.35549 0.32414 0.01630 -0.0295 0.27730 0.11884 -0.4972 -0.2639 -0.2731 -0.4034 -0.3240 0.09984 0.01497 -0.0084 0.17924 0.15650 0.27808 -0.0234 -0.3370 -0.0646 0.24077 -0.1693 -0.0833 -0.0698 -0.0441 0.09952 -0.4198 -0.2943 -0.0980 -0.2316 -0.2763 0.11613 0.13531 0.02986 -0.1080 0.32713 -0.0083 -0.0160 0.07102 0.00012 0.04200 -0.0516 -0.1751 0.01554 -0.0222 0.09574 -0.0901 -0.0996 -0.0546 0.13816 -0.1802 -0.0723 -0.2027 0.15796 0.23140 0.30670 0.40211 0.03624 0.13954 0.24714 0.34099 -0.2199 -0.7480 0.08946 0.40107 -0.1320 0.26456 0.11130 0.63054 -0.0075 0.36799 -0.2762 -0.2931 0.03023 -0.1558 0.58028 0.84609 -0.2719 -1.1227 -0.4028 -0.0482 -0.2492 -0.2825 0.58102 0.26101 0.07039 -0.2766 0.60065 0.80180 0.08973 0.04219 0.02149
臭椿属 -0.2430 -0.2591 -0.0427 0.07562 0.11974 0.00332 -0.1176 0.21205 -0.0806 -0.0559 0.06509 -0.0671 -0.1714 -0.0205 0.00363 0.06837 -0.0340 0.07108 -0.1279 -0.1000 0.24472 0.26339 -0.1169 -0.0368 -0.3047 -0.0297 -0.1627 -0.0455 -0.0800 0.02534 0.12112 0.08917 0.25719 0.10232 -0.3173 0.10028 0.18351 0.00349 0.18920 -0.0561 -0.1094 0.18023 0.03657 0.13054 -0.2770 -0.1610 -0.4286 -0.1516 -0.5507 -0.1024 0.00393 -0.0845 0.05976 -0.1528 0.00928 0.01120 -0.2127 -0.3132 0.39772 0.22012 -0.0150 0.13037 0.01181 -0.2060 -0.1112 0.10069 0.15956 0.26936 -0.0534 -0.3205 0.11062 0.09500 0.00451 -0.0502 -0.0047 -0.0914 0.18311 0.04153 -0.0826 -0.0185 0.21903 0.06273 -0.0473 0.02984 -0.1397 -0.1649 -0.0565 0.11508 0.05047 0.11290 -0.1155 0.06189 0.12747 0.03682 0.17846 0.07663 0.15629 0.12398 -0.3643 0.24957 0.21733 0.21370 0.02845 -0.3421 0.08618 0.04224 0.19784 -0.1442 0.20128 0.03643 0.12356 -0.0610 -0.1728 0.16700 0.28757 0.01030 -0.2233 -0.1686 0.08955 0.15761 0.16594 -0.0494 -0.3292 0.01960 0.07443 -0.0788 -0.0622 -0.0851 0.09268 0.00431 0.09519 0.09811 0.00359 -0.2978 0.06410 0.09009 0.30475 0.00504 0.01559 -0.1783 -0.0777 -0.0267 0.08004 0.22990 0.06536 0.05031 -0.0270 -0.0020 -0.0538 -0.1554 0.18062 0.08984 0.11246 0.01271 -0.0448 -0.2568 -0.1012 0.09789 -0.0895 0.11297 -0.3846 0.32935 -0.0301 0.13492 0.08765 -0.0732 0.04783 -0.3535 -0.1861 -0.0179 0.16189 0.20981 -0.0171 -0.1406 -0.1402 0.01162 -0.0294 0.12834 0.11127 -0.3022 -0.1225 0.17839 0.19636 -0.1772 -0.3946 0.42831 -0.0354 -0.2903 -0.1589 -0.2312 -0.2931 -0.3447 -0.0734 -0.3715 0.06447 -0.3190 0.27477 0.00473 0.02419 -0.0960 0.31056 -0.1179 -0.5418 0.26655 -0.1842 -0.1847 -0.0544 0.12800 0.36113 0.13660 -0.1754 0.14380 0.26421 0.21904 -0.0688 0.19094 -0.6387 -0.2450 -0.4556 -0.0050 0.08955 0.50723 -0.2128 0.40933 0.20532 -0.0364 -0.2860 -0.1723 0.16451 -0.1358 0.13205 0.11890 -0.1308 0.13931 -0.2055 -0.3972 0.02821 -0.0694 -0.0008 0.17938 0.32987 0.22352 -0.2075 0.21225 0.10522 -0.1101 0.23447 0.42473 -0.3011 -0.7972 -0.1246 -0.2880 0.27670 -0.3091 0.32956 0.11080 -0.0011 0.18431 -0.1401 -0.0555 -0.0307 0.34407 0.27191 0.21876 0.39024 -0.3486 0.34381 -0.1753 0.28817 -0.0893 -0.4206 0.09414 0.57877 -0.3489 -0.0573 0.07745 0.35897 0.11083 0.12953 0.21812 -0.3977 0.03081 -0.4311 0.59102 0.75076 -0.3506 -0.9594 -0.3902 0.02068 -0.1875 -0.0852 0.82122 0.68897 0.02957 -0.3715 0.67394 0.58032 -0.1091 -0.2218 0.04294
音 0.19674 -0.1244 0.09655 -0.0425 0.03338 0.02936 -0.1257 -0.2823 -0.1395 -0.0893 -0.3063 -0.1262 0.28292 -0.3025 0.38517 -0.2029 -0.4516 -0.1773 -0.0419 0.53940 -0.0685 0.23228 -0.3247 -0.0016 -0.5161 0.03555 -0.7928 0.18500 1.11289 0.28726 -0.6546 -0.8700 -0.1910 -0.2176 -0.2757 0.09766 -0.0218 -0.3671 -0.3224 0.27569 -0.2043 -0.0124 -0.0384 0.00989 0.23271 0.04625 -0.1002 -0.1481 0.36633 0.29355 -0.9267 -0.7273 0.48420 0.60085 -0.2558 0.22145 -0.0359 -0.3118 0.17314 0.01720 0.00793 0.11237 0.55109 -0.2131 0.69504 -0.2765 0.59829 -0.1637 -0.4400 -0.1466 -0.1770 -0.4615 -0.4744 -0.3580 0.11577 -0.4579 -0.1224 0.36941 -0.0674 -0.1157 0.17509 -0.0745 0.74529 -0.0672 0.31248 0.43984 -0.1907 0.49851 -0.5020 -0.1799 0.41282 -0.0766 0.13261 -0.2827 -0.8115 -0.3339 0.60396 0.49053 -0.3003 -0.1904 0.47108 -0.0388 -0.0185 -0.1818 0.27965 0.23871 0.13826 0.10225 -0.0059 0.29895 0.34642 0.42029 -0.2837 0.03013 0.33751 0.48470 -0.0731 -0.0924 0.14926 -0.2761 0.16740 0.78805 0.10124 -0.1743 0.32893 -0.2168 0.08672 -0.4167 -0.4448 0.01710 -0.2306 0.51442 0.88855 -0.3341 0.84410 -0.3138 -0.0201 0.57274 0.03160 -1.0456 -0.1244 -0.3422 0.37709 0.25158 -0.0033 0.01700 0.50631 -0.0690 -0.6926 0.02356 0.27023 0.40438 0.41074 0.35953 -0.2339 0.18542 0.32305 0.17631 0.04166 0.20248 -0.1462 0.00335 -0.3887 0.13020 0.08163 -0.6235 0.45043 -0.3999 -0.9068 -0.7589 -0.0975 0.50705 -0.3322 -0.3978 -0.4564 0.26720 -0.2766 -0.7745 -0.2852 -0.1426 -0.0858 -0.3769 0.29113 -0.0359 -0.7949 0.36408 -0.2496 -0.6445 0.02378 -0.4484 -0.2265 -0.1335 0.36658 -0.6175 0.07534 -0.6342 0.30408 0.46651 0.38734 -0.1565 -0.1403 -0.0253 -0.6837 0.65875 -0.2753 -0.4539 -0.2645 0.48284 0.86522 0.04205 0.72049 -0.0914 0.39098 0.14585 -0.6919 -0.2612 -0.2336 -0.2426 -0.2755 -0.3200 0.14650 0.32059 -0.6859 0.57593 0.58656 -0.4683 0.24039 -0.7144 0.68554 -0.3023 0.33999 -0.3939 -0.5226 0.50151 -0.6784 -1.1649 -0.3385 -0.5395 -0.7507 0.20971 -0.3225 -0.0055 -0.2292 0.92648 0.01912 0.56037 0.12268 0.30457 -0.7708 -0.6874 -0.0028 0.17058 0.08308 -0.7806 0.33900 -0.7277 -0.1365 0.73408 -0.0983 0.43739 0.06350 -0.2448 0.53749 0.52261 1.06628 0.22957 1.27018 0.60290 0.72757 -0.2406 -1.3737 0.12674 0.51407 -0.0045 0.20558 0.25663 0.91979 0.24481 -0.1107 0.02927 -1.4433 -1.1246 -0.2939 1.63245 1.18782 -0.3571 -1.4414 0.24032 0.15956 -0.3690 0.12525 1.23302 1.16011 0.31497 0.14124 0.95912 1.62076 0.47150 -0.3802 0.27662
5000年 0.00349 0.03000 -0.0269 0.05400 0.00656 0.01693 -0.0292 -0.0363 -0.0421 -0.0235 -0.0073 -0.0007 0.10237 -0.0588 0.07606 -0.0070 0.02081 -0.1572 0.13007 -0.0355 -0.0035 -0.0205 0.06710 -0.0410 -0.0687 0.00081 -0.0400 -0.0276 -0.0848 0.10164 -0.0830 -0.0302 0.03173 -0.0294 0.00494 -0.0471 -0.1014 -0.0669 -0.0143 0.04952 -0.0038 -0.1004 -0.0043 0.11143 -0.0394 0.02635 -0.0312 0.02313 -0.0524 5.66892 0.03471 0.03905 0.03602 -0.0354 0.03058 0.06869 -0.0296 0.05082 0.27036 0.00409 0.08779 0.01906 0.01054 -0.0822 -0.0143 0.03980 -0.0127 -0.0273 0.00825 -0.0121 -0.0924 -0.0283 -0.0521 0.02522 0.04764 -0.0816 0.00963 -0.0360 -0.0165 0.01340 -0.0161 -0.0256 -0.1231 0.02877 0.04269 0.00373 -0.0001 0.01432 -0.0357 -0.1222 -0.0127 -0.0024 -0.0957 0.04766 0.09495 -0.0527 0.03352 0.12544 -0.0307 -0.0158 0.15252 0.07452 0.07945 -0.1234 0.04846 0.01739 0.04429 0.03194 -0.0470 0.05248 0.01491 -0.0073 -0.1016 0.10959 0.04460 -0.0054 0.01126 0.02289 -0.0221 0.06488 -0.0193 -0.0149 -0.0342 -0.0063 -0.0177 0.06861 0.05784 -0.0111 0.03049 0.00579 -0.0283 0.04842 0.03518 -0.1035 0.03540 -0.0553 -0.0375 0.07342 -0.0373 0.05500 0.00700 -0.0478 0.10154 0.02579 -0.0184 -0.0052 0.00190 0.04351 -0.0365 0.02045 0.03921 0.01052 -0.0017 0.00236 0.06779 0.06254 -0.0394 -0.0426 0.05270 0.03092 0.03468 0.09420 -0.0979 -0.0855 0.09389 0.07342 -0.0207 -0.0185 -0.1024 -0.0297 0.06180 0.08530 -0.1035 -0.0036 -0.0459 0.00788 -0.1181 -0.1190 -0.0046 -0.0953 -0.0465 0.00430 0.04465 -0.1251 -0.1042 -0.0312 -0.0464 -0.0394 -0.0258 -0.0385 -0.0066 -0.0043 0.15733 -0.0191 -0.1001 -0.0856 0.06965 -0.0056 -0.0106 -0.0129 0.08667 -0.1903 -0.1333 -0.0385 -0.0690 -0.1341 0.03958 0.11974 0.07039 -0.0282 0.05189 0.02905 0.00240 -0.0696 -0.0704 0.00167 0.01472 -0.0848 -0.0613 0.01867 0.06700 0.09868 -0.0636 0.14540 0.06380 -0.0001 -0.0844 0.01923 0.10657 -0.0337 0.02389 -0.0177 -0.0357 0.04465 -0.1050 -0.0856 -0.0303 -0.0665 -0.1310 0.03785 0.02124 0.04041 -0.0840 0.21450 -0.0601 0.03935 0.04807 0.10056 -0.0280 -0.0290 -0.0162 -0.0364 0.12292 -0.0112 0.05336 -0.0262 0.11815 -0.0267 -0.1637 0.02596 -0.0142 0.10599 0.05724 0.06503 0.14294 -0.1206 0.19253 0.13097 0.13538 -0.0088 0.06808 -0.0395 0.09543 0.07030 0.08970 0.03948 0.01795 0.02354 0.07308 0.12563 -0.1076 -0.0042 -0.0832 0.16673 0.16241 0.02296 -0.2809 -0.0526 -0.1060 -0.1026 -0.1170 0.31739 0.14676 0.04337 -0.0787 0.08807 0.10024 -0.2197 -0.0772 0.02087
出油率 -0.0375 -0.4245 0.09972 -0.2049 -0.1097 -0.1340 -0.0127 0.04700 0.27284 0.18187 0.31120 0.24615 -0.0182 -0.1791 0.12192 0.29856 0.21453 -0.0446 0.05166 0.22258 0.07670 0.28729 -0.2024 -0.0854 -0.4051 0.13993 -0.3503 0.05263 0.04280 0.08273 -0.3939 -0.3371 0.20373 0.23202 0.16995 -0.0091 -0.1286 0.12582 -0.1774 -0.2026 -0.3932 -0.0903 -0.0727 0.35221 0.09916 -0.0120 0.04931 -0.0469 -0.0533 -0.0192 -0.0977 -0.0699 0.04035 0.26642 -0.1023 0.03695 -0.2104 0.13312 0.42065 -0.1227 -0.2242 0.19227 0.13203 0.05295 -0.0231 0.03710 -0.1018 -0.0525 -0.2227 -0.1221 -0.0513 -0.1626 -0.0986 -0.0236 -0.3561 -0.1740 -0.0301 -0.1030 -0.1439 -0.0237 -0.0303 0.03223 -0.2074 -0.1203 0.01721 -0.0543 0.16343 0.13173 0.27775 0.04366 -0.0403 0.00736 -0.0686 0.39048 0.14937 -0.0224 0.19633 0.04467 -0.1836 0.02466 0.31075 -0.0574 0.17703 -0.0422 0.01372 0.08400 0.37530 -0.1351 0.12352 0.24917 0.08273 0.01714 -0.0435 0.28217 -0.0043 0.14259 0.02894 -0.2206 0.21038 0.18041 -0.0254 -0.0827 0.38889 0.14419 -0.2610 0.11659 -0.1994 -0.1835 0.16869 0.23503 -0.1462 0.12567 0.47858 -0.1875 0.16737 -0.2871 -0.0231 -0.0031 -0.0434 -0.3291 -0.0696 -0.0666 0.26636 0.11801 0.10545 -0.1193 0.10381 0.10404 -0.1956 0.02174 0.16849 0.22135 0.07454 0.17358 0.17115 0.03685 0.21026 0.08363 0.07689 0.12262 -0.1053 0.16697 -0.4945 -0.2055 0.09499 -0.0528 0.02676 -0.1892 -0.2157 0.23070 -0.2261 0.27474 -0.1994 0.19713 -0.2604 0.01591 0.06663 0.01210 -0.1516 -0.3671 0.01420 -0.0724 0.18858 -0.4840 -0.2309 0.24330 -0.1192 -0.4162 0.11846 -0.0685 -0.0171 -0.1080 0.25126 0.16727 -0.2121 -0.1381 0.20412 0.12835 0.18387 -0.0641 -0.0955 0.04208 -0.4040 0.29582 -0.3047 -0.1945 -0.0334 0.19761 0.43993 0.05146 -0.0050 -0.1398 -0.0474 -0.0997 -0.5017 -0.0651 -0.0495 -0.5016 -0.0976 0.09860 -0.1465 0.14320 0.08109 0.47310 0.41373 -0.2104 -0.2610 -0.2381 0.26828 -0.2192 0.01174 -0.1247 -0.1430 0.18171 -0.1124 -0.0796 -0.1229 -0.1140 -0.2877 -0.1350 -0.2045 -0.2265 -0.0968 0.57423 -0.0199 0.24815 0.03637 0.27134 0.18526 0.05368 -0.3256 0.22036 -0.1392 0.22416 0.02755 0.05896 0.21722 0.04356 -0.6194 0.04913 0.15845 -0.2792 0.68072 0.29395 0.42139 -0.4441 0.55981 0.25613 0.31187 -0.2264 -0.6343 0.30461 0.57083 -0.1056 0.16420 -0.2395 0.39985 -0.1408 0.42111 0.20421 -0.3245 0.14651 -0.0421 0.14134 0.08313 -0.0594 -0.7482 -0.0716 0.05916 -0.4751 -0.3716 0.78623 0.67725 0.16014 -0.0658 0.74107 0.26325 -0.0366 0.32188 0.47757
百越族 0.04333 -0.2795 -0.0059 -0.1666 0.16188 0.00520 0.04414 0.10747 0.28757 -0.1183 0.39721 -0.0553 0.27606 -0.0283 0.17940 0.25842 -0.1135 0.03832 -0.0959 0.22408 0.26378 0.08848 -0.2199 -0.0486 -0.3950 -0.0069 -0.4097 0.04108 -0.0642 0.23985 -0.3412 -0.3614 -0.0867 -0.1245 0.10939 -0.0858 -0.1541 0.02833 0.15570 -0.0220 -0.0543 -0.2519 -0.0431 0.23450 -0.2036 0.01621 -0.0187 0.06653 -0.2593 0.05879 -0.1470 0.07596 -0.1002 0.11491 0.08938 0.08608 -0.1345 -0.2384 0.32019 0.06756 -0.0028 0.20097 0.06333 -0.1234 0.04479 0.24728 -0.0673 0.09649 -0.2041 -0.1004 -0.1109 -0.0898 -0.0065 0.03053 -0.0663 -0.2234 -0.0293 0.14289 -0.1111 -0.0254 -0.1015 -0.0444 -0.1456 -0.0204 0.27463 0.02092 0.15297 -0.1272 0.17712 -0.0839 -0.0451 -0.0133 -0.1982 0.06090 0.16566 -0.1323 0.02645 0.25848 -0.2418 0.10240 0.33513 0.35297 0.01030 -0.0005 -0.1601 0.28898 0.13784 -0.2329 -0.0165 0.05385 0.14774 0.08147 -0.1579 0.12779 0.06415 -0.1480 -0.0737 -0.0111 -0.0180 0.05845 -0.1992 0.08971 -0.1595 -0.2248 0.10937 0.01473 0.29006 0.01767 0.02203 0.00101 0.16244 0.13602 0.24624 0.07699 0.06370 0.03124 0.20444 0.18587 -0.0185 0.19369 0.09574 -0.0573 -0.2150 0.02809 0.16761 0.08451 0.03492 -0.1277 -0.0586 -0.2198 -0.0892 -0.0051 -0.0431 -0.0881 -0.0382 0.00256 -0.5156 -0.2657 0.20549 0.32341 0.11948 -0.0751 -0.4561 -0.1604 0.29643 0.02773 0.04098 -0.2134 -0.2371 0.45964 -0.1171 0.22929 -0.1814 0.07890 -0.1223 0.19288 0.05634 0.14123 -0.0761 0.16441 0.14263 0.09559 0.26569 -0.2200 -0.1364 0.08223 0.00869 -0.1548 -0.1337 -0.0897 -0.0608 0.04705 0.01859 0.00167 -0.2344 -0.3559 0.12635 0.11944 0.05862 0.14479 0.11415 0.01507 -0.1957 0.11415 -0.1839 0.18211 0.18119 0.25174 0.39122 0.03643 -0.1539 0.33560 0.05562 0.22749 -0.3168 0.11134 -0.0573 -0.2317 -0.1974 -0.0724 -0.0317 0.46842 -0.0106 0.42659 0.10617 -0.0194 -0.0951 -0.1028 0.23036 -0.4255 0.02146 -0.0680 -0.0529 0.03787 0.02376 -0.0577 -0.0825 0.19695 -0.3069 -0.0131 0.08407 0.00117 -0.2669 0.52897 0.00635 -0.0733 0.39808 0.45349 -0.3900 -0.2133 0.01538 -0.1116 -0.2367 -0.0349 0.25059 0.16833 -0.0517 0.30497 -0.3193 0.16387 -0.1118 0.03634 0.39613 0.32117 0.30669 -0.2378 0.48261 0.44968 0.25234 -0.1460 -0.1241 -0.0186 0.62478 -0.1685 0.18956 -0.3133 -0.0088 0.05387 0.28138 -0.0051 -0.3806 -0.0595 -0.0074 0.41528 0.70095 -0.3229 -0.9353 0.07837 -0.1773 -0.3871 -0.0380 0.57871 0.45736 -0.0713 -0.2409 0.62979 0.69661 -0.1039 0.32909 0.34236
南非半边莲 -0.0077 -0.2345 0.12833 -0.2554 0.02088 0.05683 -0.0531 0.01193 0.05146 -0.0296 0.13285 -0.0863 0.11706 -0.0638 -0.0264 0.18304 0.14811 0.18293 -0.2206 -0.0841 0.23848 0.17592 -0.1171 -0.0053 -0.2070 -0.0074 -0.2861 0.12316 -0.0787 0.04267 -0.1078 0.04777 0.10961 -0.0801 -0.1032 0.03748 0.09381 -0.0663 0.05347 -0.0428 -0.0559 -0.0684 -0.0235 0.16922 -0.2040 -0.0716 -0.2260 -0.0294 -0.3614 -0.1279 0.01723 -0.0082 0.03561 -0.1909 0.09932 -0.0592 -0.2585 -0.1485 0.69932 0.13993 -0.0706 0.01778 0.09065 -0.0359 -0.0830 0.04855 0.00543 -0.0989 0.05680 -0.1510 -0.0587 0.05739 -0.0152 0.03346 -0.0538 -0.2270 -0.0327 -0.2633 -0.1308 -0.1190 0.01204 -0.0378 -0.0415 0.04875 -0.0637 -0.1918 0.02929 0.06703 0.29908 -0.0708 -0.1597 0.00662 -0.0648 0.13696 0.12289 0.14650 0.08768 0.13624 -0.1588 -0.0036 0.16080 0.21519 0.08504 -0.2956 -0.0264 0.09105 0.08296 -0.0097 0.12487 0.25573 -0.0684 0.03974 -0.0086 0.01730 0.02452 0.01713 -0.1033 -0.1033 -0.0571 0.04498 0.00281 -0.0030 -0.1462 -0.0482 -0.0127 0.06515 -0.0571 -0.0733 -0.0392 0.07512 0.16126 -0.1111 0.08409 -0.0611 0.08074 -0.0512 0.09526 0.12934 0.02856 0.07169 -0.0205 0.09553 0.08996 0.08625 0.15543 0.14465 -0.0067 0.04469 -0.1620 -0.0570 0.01345 -0.1726 0.00256 0.04301 0.08004 -0.1329 -0.0940 0.12999 0.11694 0.14534 0.00168 0.03201 -0.1107 -0.0475 0.15503 -0.0011 0.06335 -0.1488 -0.1489 0.13194 -0.0280 0.09705 0.11723 0.02476 -0.2456 -0.0140 0.10983 0.00224 -0.0165 -0.0110 0.00292 0.05375 0.17714 -0.0880 -0.1571 0.05095 -0.0800 0.01828 -0.2288 -0.0910 -0.1446 0.01012 0.13961 -0.0720 -0.1832 -0.0346 0.10895 0.00631 0.03052 0.07224 0.26186 -0.1649 -0.3395 0.26631 -0.2127 -0.2160 0.06153 0.06567 0.30843 0.03778 -0.2587 -0.0039 -0.0346 -0.1010 -0.3076 0.07556 -0.1696 -0.1314 -0.0979 0.18294 -0.1059 0.23454 -0.0984 0.24330 -0.0659 -0.0776 -0.2729 -0.0907 0.07684 -0.1217 -0.0557 -0.0601 -0.2284 -0.0130 -0.2284 -0.1494 -0.0442 -0.1103 -0.1735 0.08549 0.05088 0.02540 -0.0704 0.23067 0.04310 0.10007 0.07371 0.04120 -0.2838 -0.2293 -0.1722 -0.0618 0.17729 0.10647 0.19375 0.16324 -0.0055 0.10675 -0.2735 -0.0983 -0.1818 0.16172 0.25690 0.05553 0.12943 -0.1922 0.29444 0.03530 0.24785 -0.1429 -0.2401 0.04491 0.33011 -0.1989 0.04442 -0.1438 0.37492 -0.0033 0.22967 -0.0967 -0.3310 0.13654 -0.0841 0.32749 0.64434 -0.2569 -0.7774 -0.0680 -0.0276 -0.1604 -0.0456 0.42025 0.49059 0.07805 -0.3822 0.61261 0.49336 -0.1889 -0.1163 0.17312
CPA -0.1397 -0.1347 0.00110 -0.0388 0.00347 -0.0190 0.06328 -0.0642 -0.0379 0.06886 0.01188 0.06976 -0.0056 0.00339 -0.0388 0.14595 -0.0266 0.07441 -0.1007 0.03396 0.04217 0.10310 -0.0320 -0.0112 0.05489 0.05481 0.01551 0.01181 0.01064 0.00257 -0.1117 -0.0386 -0.0836 -0.1340 -0.0177 -0.1118 -0.0011 0.07391 -0.0772 -0.1725 -0.0214 -0.0226 0.10085 0.00284 -0.0344 0.10970 0.05414 0.03585 0.09819 0.13948 -0.0526 0.05731 -0.0412 0.03393 0.00348 0.07350 -0.0607 0.00304 0.06618 -0.1404 -0.0419 -0.1327 -0.1099 -0.0573 -0.0333 0.09913 0.00540 0.01310 0.07214 0.01337 0.03348 -0.1215 0.04473 0.03649 -0.0285 -0.1473 0.04619 0.00341 -0.1037 -0.0061 0.02580 0.01849 0.01724 0.07790 0.03455 0.00275 0.02928 -0.0200 0.08619 0.01171 -0.0804 -0.0211 -0.0661 0.07726 -0.0892 0.08636 -0.0181 -0.0509 0.02140 0.04485 -0.0962 -0.0833 0.02967 -0.0077 0.06897 0.03378 -0.0087 0.03858 0.02321 -0.0565 -0.0266 0.06583 0.04883 -0.0974 -0.0552 0.21441 0.06472 0.07225 0.14985 -0.0767 -0.0902 -0.0597 0.14639 0.02565 0.07023 0.01185 -0.0453 -0.0228 0.02875 -0.0481 -0.0671 0.00322 0.09625 0.07009 0.01569 -0.1118 -0.0211 0.02785 -0.0947 -0.0940 0.09780 0.04807 0.19193 0.08274 0.06991 0.03267 0.07860 -0.0579 -0.0505 0.03334 0.08364 0.08946 -0.0516 0.00498 -0.0684 -0.0719 0.08089 -0.0038 0.02783 0.00517 -0.1088 -0.0485 0.02490 -0.0045 0.04583 -0.0783 -0.0418 -0.1253 0.05254 -0.0588 0.01118 -0.0506 -0.1514 0.06241 0.02165 -0.0815 -0.0176 0.06482 0.10549 -0.0377 -0.0039 0.03561 0.01041 0.06194 -0.0509 0.16350 -0.0958 -0.0591 0.02291 -0.0971 0.13437 -0.1383 -0.0811 0.05637 -0.0387 0.03526 0.00502 0.02562 -0.0173 -0.1350 0.01812 0.01274 -0.0222 0.02946 0.11263 -0.0725 -0.1483 0.06484 -0.0756 -0.0086 0.13114 -0.0731 0.06275 -0.0521 0.01815 0.00492 -0.0156 -0.0139 0.01760 0.01004 -0.0766 0.01838 0.04558 -0.0108 -0.0386 -0.0278 -0.0103 -0.0314 0.00568 -0.1040 0.12224 0.06752 -0.0129 -0.0397 0.20176 -0.0615 -0.0088 -0.1077 0.00461 -0.0558 -0.0711 -0.0698 -0.0165 -0.0042 -0.0168 0.04052 0.06582 -0.0741 -0.0065 0.03788 -0.0946 -0.0462 0.04906 0.09854 0.01361 0.07221 -0.0685 -0.0549 -0.0345 -0.0616 -0.0262 -0.1145 0.05979 0.10611 0.06282 0.00396 0.05948 0.10226 -0.0090 -0.0197 -0.0097 0.09382 0.13420 -0.0372 0.04452 0.05625 0.07435 -0.0776 0.04435 0.05945 -0.0169 -0.0406 -0.0512 0.15767 -0.0265 0.04342 -0.1717 -0.0706 0.11464 0.01359 -0.0380 0.02795 0.08824 0.01846 0.01304 0.07262 0.02205 -0.1353 0.01963 0.02484
计算尺 0.19484 -0.2486 -0.3445 0.05911 -0.0783 0.08330 -0.0334 0.08299 -0.0451 0.13456 0.15209 0.04307 0.28624 -0.1287 0.15515 0.45754 0.19774 0.30872 0.07857 -0.0321 -0.1056 0.31149 -0.0275 0.10168 -0.1973 0.42420 -0.1767 0.07889 -0.0690 0.21822 -0.2810 -0.0057 0.11217 0.13469 0.13233 0.03739 -0.0509 -0.2103 -0.0803 -0.0493 0.23591 -0.2698 -0.1006 0.20308 -0.2323 0.09376 0.18357 0.07035 0.02991 0.00286 -0.0908 -0.1473 0.13805 -0.1097 -0.0749 -0.2589 -0.3395 0.02667 0.28560 0.07642 -0.1761 0.15721 0.18009 0.05778 -0.1810 -0.1621 -0.0583 -0.2366 -0.0963 0.00264 -0.2987 -0.0844 -0.1518 -0.0549 -0.1505 -0.4676 0.00844 -0.0534 -0.3472 -0.2327 -0.0654 -0.0423 0.26091 0.15701 -0.0331 -0.0180 -0.0315 0.12995 0.32009 0.34359 -0.3004 0.07589 -0.3162 -0.1554 0.05192 -0.0175 0.15035 -0.1353 -0.1110 0.00244 0.13463 0.00204 0.22367 -0.1464 -0.0676 0.14004 0.04283 0.09708 -0.0278 0.17285 0.09324 0.14039 -0.0226 0.05052 -0.0772 0.06556 -0.2731 -0.0388 0.00158 0.13007 0.01059 0.26096 -0.1811 -0.2137 -0.2381 0.05322 0.23866 -0.1774 0.05644 -0.1328 0.09130 0.01318 0.28735 0.09958 0.17045 0.13876 0.14459 -0.0336 -0.2981 -0.5496 -0.0107 0.12329 0.31706 0.31396 0.15974 -0.0838 0.03549 0.09458 -0.1466 -0.0608 0.23816 0.08569 -0.1307 0.21792 -0.2263 0.12168 0.50874 0.06591 0.07230 -0.2094 -0.4325 0.18727 0.07017 0.31052 0.12073 -0.1776 0.22153 -0.3764 -0.1817 -0.0453 0.19283 -0.0702 -0.2143 0.11653 -0.2515 -0.1689 0.04496 -0.1514 -0.0820 -0.1695 -0.3280 0.16283 0.06285 -0.2623 -0.2742 0.33603 -0.1783 -0.2753 -0.3448 -0.1389 -0.1550 -0.1607 -0.1089 0.09760 -0.3227 -0.1986 0.18583 0.14296 0.17494 -0.1572 0.22194 -0.1119 -0.5549 0.52857 -0.0411 -0.3873 -0.1980 0.28837 0.52669 0.28488 -0.0724 0.08132 -0.0043 0.23369 -0.4239 0.03168 -0.1088 -0.4490 -0.1035 0.07357 0.01404 0.32393 0.09826 0.40668 0.44813 -0.0196 -0.4259 -0.4195 0.15927 -0.2888 -0.0071 0.10244 -0.0777 -0.0108 -0.4407 -0.0557 -0.1028 -0.5445 -0.1772 -0.0263 -0.2981 -0.1731 -0.1992 0.15720 -0.3172 0.38266 -0.3394 0.01776 0.08838 0.30783 -0.3856 0.22382 -0.3462 0.53189 -0.1703 -0.2029 -0.0859 0.13639 -0.2968 -0.3928 -0.0921 -0.0843 0.27132 0.40428 0.50487 -0.2542 0.23461 0.36372 0.31452 -0.3651 -1.0924 0.10896 0.16366 -0.1982 0.22991 -0.0753 0.71915 0.01921 0.02945 -0.3835 -0.4393 0.12270 -0.1636 -0.0267 0.47309 -0.2081 -0.9890 -0.0967 0.03580 -0.2563 -0.4717 0.38229 0.26674 0.02373 -0.2886 0.68647 0.60058 0.03430 0.02026 0.30328
精索炎 0.00012 -0.0740 -0.0906 0.19627 0.27670 -0.1528 -0.0817 0.09689 0.10244 0.02470 -0.0192 -0.1206 -0.1756 0.06460 -0.0380 0.27119 -0.2098 -0.2006 -0.0420 -0.0099 0.06146 0.22222 0.15214 -0.0866 -0.1750 0.23569 -0.0793 0.03475 0.03050 0.20240 -0.4585 -0.2843 0.06295 0.00852 -0.0585 -0.0773 -0.1604 0.01380 0.17957 0.28579 -0.2201 0.10119 0.02450 0.16232 0.03850 -0.1160 -0.1305 -0.0867 -0.2216 0.03573 0.09367 -0.1552 0.17818 0.10788 -0.1012 -0.0103 -0.1072 0.02074 0.13487 -0.0666 -0.0939 0.14372 -0.0701 -0.0608 0.22991 -0.1602 -0.0398 0.16483 -0.0629 -0.0733 0.17085 -0.1897 -0.2677 -0.0384 0.07020 -0.1970 0.09405 -0.0289 -0.1865 0.01088 0.05375 -0.1005 -0.3673 -0.3069 -0.0430 0.10926 0.16180 -0.0669 0.13280 0.16302 0.06252 0.04599 -0.1515 0.12892 0.16701 0.04481 0.22919 0.41617 -0.0439 0.12490 0.45773 0.36106 -0.1848 -0.1592 -0.0499 0.32961 0.11362 -0.0214 0.03138 0.09617 0.06294 0.00694 -0.4304 0.10582 -0.2010 0.03617 -0.0893 -0.0675 -0.0050 0.16426 -0.1126 -0.0895 0.12297 -0.1644 -0.0357 0.17573 -0.0788 -0.0523 0.02997 0.16782 -0.0134 0.33204 0.24494 -0.1489 0.32494 -0.1762 0.17660 0.09236 -0.0748 0.07734 0.02475 -0.0824 0.13801 -0.0718 0.08900 0.03172 0.09776 0.18171 -0.2468 -0.0888 0.20771 0.26349 0.01531 -0.0744 0.02125 0.03914 -0.1144 0.13615 0.16648 0.20814 0.00030 0.09033 -0.3213 -0.0704 0.22718 -0.1405 -0.2156 -0.3016 -0.1187 0.18551 -0.0713 0.21172 -0.1274 0.08333 -0.2475 0.22213 -0.0565 -0.1328 -0.0057 0.06586 0.19756 0.11434 0.34070 -0.0255 -0.0714 0.02368 0.04712 -0.3520 -0.1569 -0.1257 0.06973 -0.1624 0.19095 0.12874 -0.0097 -0.1584 0.06465 -0.0531 0.05827 -0.0041 0.02803 -0.0215 -0.3067 0.02416 -0.1930 -0.2645 0.09691 0.22594 0.36827 0.21245 -0.1320 -0.0617 0.10994 0.04036 -0.2994 -0.0447 -0.2378 -0.3203 -0.3037 0.11286 -0.0062 0.04523 0.09813 0.34109 0.11884 -0.2916 -0.2757 0.07319 0.16862 -0.2619 0.18036 -0.1551 -0.0137 0.13783 0.07046 -0.0514 -0.2378 -0.2967 -0.2301 -0.0530 -0.0780 -0.1489 -0.2264 0.06680 0.04664 0.30926 -0.1619 0.17001 0.05931 0.04982 -0.0944 -0.2187 0.08621 0.17648 -0.0689 -0.2609 0.06938 0.08656 -0.3174 0.08113 -0.1709 -0.0094 0.29119 0.28950 0.46354 -0.2084 0.31591 0.53671 0.03771 -0.2146 -0.4816 0.28051 0.12131 0.17350 0.24581 -0.1164 0.51776 -0.0414 0.20198 0.16340 -0.2203 0.01478 -0.0004 0.37134 0.17465 -0.3204 -0.8252 -0.2463 -0.3828 -0.3390 -0.4536 0.72125 0.25334 0.35250 -0.4835 0.82091 0.68456 -0.2014 0.33329 0.16404
